{"learner":{"attributes":{"best_iteration":"499","best_ntree_limit":"500","scikit_learn":"{\"n_estimators\": 500, \"objective\": \"reg:squarederror\", \"max_depth\": 4, \"max_leaves\": null, \"max_bin\": null, \"grow_policy\": null, \"learning_rate\": 0.05, \"verbosity\": null, \"booster\": \"gbtree\", \"tree_method\": null, \"gamma\": 0, \"min_child_weight\": 1, \"max_delta_step\": null, \"subsample\": null, \"sampling_method\": null, \"colsample_bytree\": null, \"colsample_bylevel\": null, \"colsample_bynode\": null, \"reg_alpha\": null, \"reg_lambda\": null, \"scale_pos_weight\": null, \"base_score\": null, \"missing\": NaN, \"num_parallel_tree\": null, \"random_state\": null, \"n_jobs\": null, \"monotone_constraints\": null, \"interaction_constraints\": null, \"importance_type\": null, \"gpu_id\": null, \"validate_parameters\": null, \"predictor\": null, \"enable_categorical\": false, \"feature_types\": null, \"max_cat_to_onehot\": null, \"max_cat_threshold\": null, \"eval_metric\": null, \"early_stopping_rounds\": null, \"callbacks\": null, \"_estimator_type\": \"regressor\"}"},"feature_names":[],"feature_types":[],"gradient_booster":{"model":{"gbtree_model_param":{"num_parallel_tree":"1","num_trees":"500","size_leaf_vector":"0"},"tree_info":[0,0,0,0,0,0,0,0,0,0,0,0,0,0,0,0,0,0,0,0,0,0,0,0,0,0,0,0,0,0,0,0,0,0,0,0,0,0,0,0,0,0,0,0,0,0,0,0,0,0,0,0,0,0,0,0,0,0,0,0,0,0,0,0,0,0,0,0,0,0,0,0,0,0,0,0,0,0,0,0,0,0,0,0,0,0,0,0,0,0,0,0,0,0,0,0,0,0,0,0,0,0,0,0,0,0,0,0,0,0,0,0,0,0,0,0,0,0,0,0,0,0,0,0,0,0,0,0,0,0,0,0,0,0,0,0,0,0,0,0,0,0,0,0,0,0,0,0,0,0,0,0,0,0,0,0,0,0,0,0,0,0,0,0,0,0,0,0,0,0,0,0,0,0,0,0,0,0,0,0,0,0,0,0,0,0,0,0,0,0,0,0,0,0,0,0,0,0,0,0,0,0,0,0,0,0,0,0,0,0,0,0,0,0,0,0,0,0,0,0,0,0,0,0,0,0,0,0,0,0,0,0,0,0,0,0,0,0,0,0,0,0,0,0,0,0,0,0,0,0,0,0,0,0,0,0,0,0,0,0,0,0,0,0,0,0,0,0,0,0,0,0,0,0,0,0,0,0,0,0,0,0,0,0,0,0,0,0,0,0,0,0,0,0,0,0,0,0,0,0,0,0,0,0,0,0,0,0,0,0,0,0,0,0,0,0,0,0,0,0,0,0,0,0,0,0,0,0,0,0,0,0,0,0,0,0,0,0,0,0,0,0,0,0,0,0,0,0,0,0,0,0,0,0,0,0,0,0,0,0,0,0,0,0,0,0,0,0,0,0,0,0,0,0,0,0,0,0,0,0,0,0,0,0,0,0,0,0,0,0,0,0,0,0,0,0,0,0,0,0,0,0,0,0,0,0,0,0,0,0,0,0,0,0,0,0,0,0,0,0,0,0,0,0,0,0,0,0,0,0,0,0,0,0,0,0,0,0,0,0,0,0,0,0,0,0,0,0,0,0,0,0,0,0,0,0,0,0,0,0,0,0,0,0,0,0,0,0,0,0,0,0,0,0,0,0,0,0,0,0,0,0,0,0,0,0,0,0,0,0,0,0,0,0,0,0,0,0,0,0],"trees":[{"base_weights":[5.7579052E1,5.145756E1,6.388736E1,4.4416424E1,5.4334232E1,6.0670757E1,7.016695E1,3.842484E1,4.7616924E1,5.2502903E1,5.902688E1,5.808362E1,6.3675453E1,6.762425E1,7.502056E1,3.5028137E1,4.0891285E1,4.8524105E1,3.300666E1,4.8555187E1,5.47758E1,5.7797768E1,6.3014465E1,5.4854275E1,5.992744E1,6.1226543E1,6.5086205E1,6.415955E1,6.896899E1,7.233405E1,7.9119125E1],"categories":[],"categories_nodes":[],"categories_segments":[],"categories_sizes":[],"default_left":[1,1,1,1,1,1,1,1,1,1,1,1,1,1,1,0,0,0,0,0,0,0,0,0,0,0,0,0,0,0,0],"id":0,"left_children":[1,3,5,7,9,11,13,15,17,19,21,23,25,27,29,-1,-1,-1,-1,-1,-1,-1,-1,-1,-1,-1,-1,-1,-1,-1,-1],"loss_changes":[3.148608E6,8.36744E5,8.07584E5,2.28706E5,2.49616E5,2.02976E5,1.62868E5,3.3679E4,1.02204E5,1.87224E5,3.6778E4,8.184E4,3.8472E4,3.7232E4,4.5684E4,0E0,0E0,0E0,0E0,0E0,0E0,0E0,0E0,0E0,0E0,0E0,0E0,0E0,0E0,0E0,0E0],"parents":[2147483647,0,0,1,1,2,2,3,3,4,4,5,5,6,6,7,7,8,8,9,9,10,10,11,11,12,12,13,13,14,14],"right_children":[2,4,6,8,10,12,14,16,18,20,22,24,26,28,30,-1,-1,-1,-1,-1,-1,-1,-1,-1,-1,-1,-1,-1,-1,-1,-1],"split_conditions":[-1.00410536E-1,-8.4929204E-1,2.3253065E-1,3.0234225E-2,2.0942155E-1,2.799723E-1,1.0562172E0,-3.5372563E-2,3.2004747E0,6.989199E-2,1.8218154E-1,1.58734E-1,1.5748894E-1,-5.8372483E-2,3.242865E-1,1.7514069E0,2.0445642E0,2.4262054E0,1.650333E0,2.4277594E0,2.73879E0,2.8898885E0,3.1507232E0,2.7427137E0,2.996372E0,3.0613272E0,3.2543104E0,3.2079778E0,3.4484494E0,3.6167028E0,3.9559562E0],"split_indices":[2,30,20,20,7,7,30,20,31,20,28,20,28,8,20,0,0,0,0,0,0,0,0,0,0,0,0,0,0,0,0],"split_type":[0,0,0,0,0,0,0,0,0,0,0,0,0,0,0,0,0,0,0,0,0,0,0,0,0,0,0,0,0,0,0],"sum_hessian":[8.162E4,4.1428E4,4.0192E4,1.2021E4,2.9407E4,2.6585E4,1.3607E4,4.19E3,7.831E3,2.1161E4,8.246E3,1.4296E4,1.2289E4,8.939E3,4.668E3,1.769E3,2.421E3,7.371E3,4.6E2,7.74E3,1.3421E4,6.315E3,1.931E3,5.207E3,9.089E3,4.508E3,7.781E3,2.513E3,6.426E3,2.831E3,1.837E3],"tree_param":{"num_deleted":"0","num_feature":"37","num_nodes":"31","size_leaf_vector":"0"}},{"base_weights":[5.4700657E1,4.8885143E1,6.0693645E1,4.3914867E1,5.2623768E1,5.773019E1,6.684599E1,3.7993225E1,4.6887234E1,5.1185074E1,5.721564E1,5.4834957E1,6.0177208E1,6.439964E1,7.1367516E1,3.3599316E1,4.0129585E1,3.2910202E1,4.756516E1,4.772514E1,5.2952866E1,5.5936283E1,6.0907166E1,5.207647E1,5.6989506E1,5.8211685E1,6.1813026E1,6.12507E1,6.58052E1,6.884993E1,7.525465E1],"categories":[],"categories_nodes":[],"categories_segments":[],"categories_sizes":[],"default_left":[1,1,1,1,1,1,1,1,1,1,1,1,1,1,1,0,0,0,0,0,0,0,0,0,0,0,0,0,0,0,0],"id":1,"left_children":[1,3,5,7,9,11,13,15,17,19,21,23,25,27,29,-1,-1,-1,-1,-1,-1,-1,-1,-1,-1,-1,-1,-1,-1,-1,-1],"loss_changes":[2.841728E6,7.67528E5,7.28944E5,3.11364E5,1.53236E5,1.88944E5,1.3986E5,5.4514E4,1.10632E5,1.07628E5,2.3188E4,7.0968E4,4.3648E4,3.3524E4,3.9598E4,0E0,0E0,0E0,0E0,0E0,0E0,0E0,0E0,0E0,0E0,0E0,0E0,0E0,0E0,0E0,0E0],"parents":[2147483647,0,0,1,1,2,2,3,3,4,4,5,5,6,6,7,7,8,8,9,9,10,10,11,11,12,12,13,13,14,14],"right_children":[2,4,6,8,10,12,14,16,18,20,22,24,26,28,30,-1,-1,-1,-1,-1,-1,-1,-1,-1,-1,-1,-1,-1,-1,-1,-1],"split_conditions":[-1.00410536E-1,-6.3676053E-1,2.3541729E-1,3.768567E-2,4.825905E-1,1.11991644E-1,1.0562172E0,-1.1944262E0,-2.6011806E0,6.572832E-2,2.663936E-1,1.6734935E-1,2.5456616E-1,-6.515137E-2,3.2640952E-1,1.6799659E0,2.0064793E0,1.6455101E0,2.378258E0,2.386257E0,2.6476433E0,2.7968142E0,3.0453584E0,2.6038234E0,2.8494754E0,2.9105842E0,3.0906513E0,3.062535E0,3.29026E0,3.4424965E0,3.7627323E0],"split_indices":[2,7,20,20,7,7,30,30,19,20,28,20,28,30,20,0,0,0,0,0,0,0,0,0,0,0,0,0,0,0,0],"split_type":[0,0,0,0,0,0,0,0,0,0,0,0,0,0,0,0,0,0,0,0,0,0,0,0,0,0,0,0,0,0,0],"sum_hessian":[8.162E4,4.1428E4,4.0192E4,1.779E4,2.3638E4,2.7133E4,1.3059E4,5.95E3,1.184E4,1.8008E4,5.63E3,1.2439E4,1.4694E4,8.484E3,4.575E3,1.952E3,3.998E3,5.5E2,1.129E4,6.099E3,1.1909E4,4.193E3,1.437E3,5.466E3,6.973E3,6.691E3,8.003E3,2.632E3,5.852E3,2.788E3,1.787E3],"tree_param":{"num_deleted":"0","num_feature":"37","num_nodes":"31","size_leaf_vector":"0"}},{"base_weights":[5.1966156E1,4.6601475E1,5.783955E1,4.209596E1,5.1046482E1,5.5288506E1,6.3552307E1,3.65787E1,4.4608562E1,4.949915E1,5.5390347E1,4.9247334E1,5.6754368E1,6.107643E1,6.826398E1,3.251207E1,3.905362E1,4.0063915E1,4.561711E1,4.6366974E1,5.061939E1,5.3535954E1,5.7674816E1,5.0746807E1,3.0362246E1,5.558818E1,5.9797684E1,5.7999153E1,6.280921E1,6.5952675E1,7.165582E1],"categories":[],"categories_nodes":[],"categories_segments":[],"categories_sizes":[],"default_left":[1,1,1,1,1,1,1,1,1,1,1,1,1,1,1,0,0,0,0,0,0,0,0,0,0,0,0,0,0,0,0],"id":2,"left_children":[1,3,5,7,9,11,13,15,17,19,21,23,25,27,29,-1,-1,-1,-1,-1,-1,-1,-1,-1,-1,-1,-1,-1,-1,-1,-1],"loss_changes":[2.569072E6,8.52264E5,5.64256E5,2.92164E5,1.4158E5,2.35776E5,1.36052E5,6.5528E4,6.4894E4,5.3232E4,2.0766E4,1.47637E5,7.36E4,3.8424E4,2.7668E4,0E0,0E0,0E0,0E0,0E0,0E0,0E0,0E0,0E0,0E0,0E0,0E0,0E0,0E0,0E0,0E0],"parents":[2147483647,0,0,1,1,2,2,3,3,4,4,5,5,6,6,7,7,8,8,9,9,10,10,11,11,12,12,13,13,14,14],"right_children":[2,4,6,8,10,12,14,16,18,20,22,24,26,28,30,-1,-1,-1,-1,-1,-1,-1,-1,-1,-1,-1,-1,-1,-1,-1,-1],"split_conditions":[1.4740868E-1,-4.1469157E-1,9.6932304E-1,2.9147865E-2,7.003391E-1,-5.783645E-1,3.0261886E-1,-1.0995336E0,-1.0904539E0,5.1343214E-2,1.1239421E-1,3.2004747E0,7.647063E-1,2.9536664E-1,1.5295005E0,1.6256036E0,1.952681E0,2.0031958E0,2.2808557E0,2.3183486E0,2.5309694E0,2.6767976E0,2.883741E0,2.5373404E0,1.5181123E0,2.7794092E0,2.9898841E0,2.8999577E0,3.1404607E0,3.297634E0,3.582791E0],"split_indices":[20,7,2,20,7,30,20,30,30,20,28,31,7,8,30,0,0,0,0,0,0,0,0,0,0,0,0,0,0,0,0],"split_type":[0,0,0,0,0,0,0,0,0,0,0,0,0,0,0,0,0,0,0,0,0,0,0,0,0,0,0,0,0,0,0],"sum_hessian":[8.162E4,4.2662E4,3.8958E4,2.1192E4,2.147E4,2.6939E4,1.2019E4,6.636E3,1.4556E4,1.584E4,5.63E3,5.267E3,2.1672E4,7.888E3,4.131E3,2.516E3,4.12E3,2.651E3,1.1905E4,4.184E3,1.1656E4,3.121E3,2.509E3,4.878E3,3.89E2,1.5682E4,5.99E3,2.854E3,5.034E3,2.469E3,1.662E3],"tree_param":{"num_deleted":"0","num_feature":"37","num_nodes":"31","size_leaf_vector":"0"}},{"base_weights":[4.936835E1,4.4226185E1,5.4927547E1,3.6750023E1,4.629124E1,5.210611E1,6.0241566E1,3.1287764E1,3.922579E1,4.389893E1,4.933543E1,4.9957413E1,5.4833843E1,5.799852E1,6.4342896E1,2.8179018E1,3.3210606E1,4.012112E1,2.7523457E1,4.027166E1,4.628969E1,4.802267E1,5.2580563E1,4.754093E1,5.1763756E1,5.2940483E1,5.617034E1,5.6574863E1,6.067778E1,6.21207E1,6.795004E1],"categories":[],"categories_nodes":[],"categories_segments":[],"categories_sizes":[],"default_left":[1,1,1,1,1,1,1,1,1,1,1,1,1,1,1,0,0,0,0,0,0,0,0,0,0,0,0,0,0,0,0],"id":3,"left_children":[1,3,5,7,9,11,13,15,17,19,21,23,25,27,29,-1,-1,-1,-1,-1,-1,-1,-1,-1,-1,-1,-1,-1,-1,-1,-1],"loss_changes":[2.330832E6,6.52992E5,5.84832E5,1.22958E5,2.39792E5,1.47432E5,1.21328E5,1.6214E4,6.5061E4,1.59548E5,5.9724E4,6.0148E4,2.5572E4,3.0126E4,3.423E4,0E0,0E0,0E0,0E0,0E0,0E0,0E0,0E0,0E0,0E0,0E0,0E0,0E0,0E0,0E0,0E0],"parents":[2147483647,0,0,1,1,2,2,3,3,4,4,5,5,6,6,7,7,8,8,9,9,10,10,11,11,12,12,13,13,14,14],"right_children":[2,4,6,8,10,12,14,16,18,20,22,24,26,28,30,-1,-1,-1,-1,-1,-1,-1,-1,-1,-1,-1,-1,-1,-1,-1,-1],"split_conditions":[-7.20412E-2,-9.490994E-1,2.3249464E-1,1.3633962E-2,-1.8859741E-1,3.4181267E-1,1.030653E0,-1.4857748E0,3.2004747E0,7.524924E-2,7.15039E-1,1.6752243E-1,2.5456616E-1,2.829656E-1,3.2640952E-1,1.4089509E0,1.6605303E0,2.006056E0,1.3761729E0,2.013583E0,2.3144844E0,2.4011335E0,2.629028E0,2.3770466E0,2.588188E0,2.6470242E0,2.8085172E0,2.8287432E0,3.033889E0,3.106035E0,3.3975022E0],"split_indices":[2,30,20,20,7,7,30,7,31,20,7,20,28,20,20,0,0,0,0,0,0,0,0,0,0,0,0,0,0,0,0],"split_type":[0,0,0,0,0,0,0,0,0,0,0,0,0,0,0,0,0,0,0,0,0,0,0,0,0,0,0,0,0,0,0],"sum_hessian":[8.162E4,4.2405E4,3.9215E4,9.182E3,3.3223E4,2.5622E4,1.3593E4,2.868E3,6.314E3,1.8612E4,1.4611E4,1.4343E4,1.1279E4,8.797E3,4.796E3,1.102E3,1.766E3,5.863E3,4.51E2,7.401E3,1.1211E4,1.0414E4,4.197E3,6.147E3,8.196E3,4.684E3,6.595E3,5.759E3,3.038E3,2.979E3,1.817E3],"tree_param":{"num_deleted":"0","num_feature":"37","num_nodes":"31","size_leaf_vector":"0"}},{"base_weights":[4.690041E1,4.1658573E1,5.1877186E1,3.743578E1,4.5623493E1,4.86835E1,5.5741375E1,3.2545853E1,3.96624E1,4.3936916E1,4.903824E1,3.1593458E1,4.91068E1,5.358177E1,6.0892094E1,2.9398592E1,3.5101788E1,3.544103E1,4.0589077E1,4.1173172E1,4.5075443E1,4.6694782E1,5.087895E1,2.7041958E1,4.281645E1,4.729468E1,5.235153E1,5.1934002E1,5.559252E1,5.9330814E1,6.512971E1],"categories":[],"categories_nodes":[],"categories_segments":[],"categories_sizes":[],"default_left":[1,1,1,1,1,1,1,1,1,1,1,1,1,1,1,0,0,0,0,0,0,0,0,0,0,0,0,0,0,0,0],"id":4,"left_children":[1,3,5,7,9,11,13,15,17,19,21,23,25,27,29,-1,-1,-1,-1,-1,-1,-1,-1,-1,-1,-1,-1,-1,-1,-1,-1],"loss_changes":[2.12712E6,6.63944E5,5.13944E5,2.08388E5,1.15912E5,1.6432E5,2.07384E5,4.7483E4,5.0308E4,4.1354E4,2.6824E4,2.7294625E4,1.29076E5,4.1344E4,3.31E4,0E0,0E0,0E0,0E0,0E0,0E0,0E0,0E0,0E0,0E0,0E0,0E0,0E0,0E0,0E0,0E0],"parents":[2147483647,0,0,1,1,2,2,3,3,4,4,5,5,6,6,7,7,8,8,9,9,10,10,11,11,12,12,13,13,14,14],"right_children":[2,4,6,8,10,12,14,16,18,20,22,24,26,28,30,-1,-1,-1,-1,-1,-1,-1,-1,-1,-1,-1,-1,-1,-1,-1,-1],"split_conditions":[1.3904181E-1,-4.5750004E-1,2.7073425E-1,2.4272673E-2,4.8306626E-1,-2.6011806E0,2.7224195E-1,-1.0453732E0,-1.1136041E0,5.1343214E-2,3.0187064E-1,-7.580348E-1,2.0486122E-1,2.090108E-1,3.5268992E-1,1.4699296E0,1.7550894E0,1.7720515E0,2.029454E0,2.0586586E0,2.2537723E0,2.3347392E0,2.5439475E0,1.3520979E0,2.1408224E0,2.3647342E0,2.6175764E0,2.5967002E0,2.7796261E0,2.9665408E0,3.2564855E0],"split_indices":[20,7,8,20,7,19,20,30,30,20,29,30,20,20,20,0,0,0,0,0,0,0,0,0,0,0,0,0,0,0,0],"split_type":[0,0,0,0,0,0,0,0,0,0,0,0,0,0,0,0,0,0,0,0,0,0,0,0,0,0,0,0,0,0,0],"sum_hessian":[8.162E4,3.9756E4,4.1864E4,1.9257E4,2.0499E4,2.2928E4,1.8936E4,6.03E3,1.3227E4,1.3731E4,6.768E3,5.56E2,2.2372E4,1.335E4,5.586E3,2.708E3,3.322E3,2.388E3,1.0839E4,4.017E3,9.714E3,2.989E3,3.779E3,3.98E2,1.58E2,1.4365E4,8.007E3,7.352E3,5.998E3,4.093E3,1.493E3],"tree_param":{"num_deleted":"0","num_feature":"37","num_nodes":"31","size_leaf_vector":"0"}},{"base_weights":[4.4555832E1,3.8290924E1,4.8332947E1,3.329998E1,4.115266E1,4.5061424E1,5.3004337E1,2.9376211E1,3.5724327E1,4.1555332E1,2.6709293E1,4.369363E1,4.8346252E1,5.1149994E1,5.742964E1,2.5629137E1,3.116895E1,3.258406E1,3.7246933E1,3.9186752E1,4.3997345E1,3.0177988E1,2.233061E1,4.0676792E1,4.5228745E1,4.652202E1,5.0171528E1,5.0401184E1,5.535621E1,5.546761E1,6.052235E1],"categories":[],"categories_nodes":[],"categories_segments":[],"categories_sizes":[],"default_left":[1,1,1,1,1,1,1,1,1,1,1,1,1,1,1,0,0,0,0,0,0,0,0,0,0,0,0,0,0,0,0],"id":5,"left_children":[1,3,5,7,9,11,13,15,17,19,21,23,25,27,29,-1,-1,-1,-1,-1,-1,-1,-1,-1,-1,-1,-1,-1,-1,-1,-1],"loss_changes":[1.929568E6,4.3718E5,7.75752E5,1.05444E5,1.12366E5,1.32464E5,1.69112E5,2.79585E4,3.1849E4,1.0806E5,7.4062812E3,9.614E4,2.6956E4,4.3772E4,3.4162E4,0E0,0E0,0E0,0E0,0E0,0E0,0E0,0E0,0E0,0E0,0E0,0E0,0E0,0E0,0E0,0E0],"parents":[2147483647,0,0,1,1,2,2,3,3,4,4,5,5,6,6,7,7,8,8,9,9,10,10,11,11,12,12,13,13,14,14],"right_children":[2,4,6,8,10,12,14,16,18,20,22,24,26,28,30,-1,-1,-1,-1,-1,-1,-1,-1,-1,-1,-1,-1,-1,-1,-1,-1],"split_conditions":[-4.3474698E-1,6.719129E-2,1.9020838E-1,-1.1092055E0,3.1736639E0,7.07149E-1,2.7976424E-1,-3.535643E-2,-3.2595224E-3,1.3417773E-1,1.2079289E0,9.062107E-2,1.661254E-1,1.4305238E0,1.3717666E0,1.2814568E0,1.5584475E0,1.6292031E0,1.8623466E0,1.9593376E0,2.1998672E0,1.5088995E0,1.1165305E0,2.0338397E0,2.2614372E0,2.326101E0,2.5085764E0,2.5200593E0,2.7678106E0,2.7733805E0,3.0261176E0],"split_indices":[30,20,20,7,31,7,20,20,20,20,0,20,28,7,30,0,0,0,0,0,0,0,0,0,0,0,0,0,0,0,0],"split_type":[0,0,0,0,0,0,0,0,0,0,0,0,0,0,0,0,0,0,0,0,0,0,0,0,0,0,0,0,0,0,0],"sum_hessian":[8.162E4,3.0704E4,5.0916E4,1.1194E4,1.951E4,2.9951E4,2.0965E4,4.28E3,6.914E3,1.8979E4,5.31E2,2.1156E4,8.795E3,1.4783E4,6.182E3,1.39E3,2.89E3,2.265E3,4.649E3,9.643E3,9.336E3,2.93E2,2.38E2,7.144E3,1.4012E4,4.412E3,4.383E3,1.256E4,2.223E3,3.794E3,2.388E3],"tree_param":{"num_deleted":"0","num_feature":"37","num_nodes":"31","size_leaf_vector":"0"}},{"base_weights":[4.232845E1,3.792494E1,4.7209827E1,3.1060844E1,3.960715E1,4.452583E1,5.1458824E1,2.5841398E1,3.3096443E1,3.6803658E1,4.219468E1,4.1604824E1,4.6565502E1,4.9647152E1,5.542356E1,2.2816324E1,2.7193087E1,3.3892773E1,2.320596E1,3.467271E1,3.953908E1,4.0218437E1,4.3491867E1,3.9283226E1,4.3346684E1,4.5655216E1,4.8671547E1,4.8523155E1,5.2667587E1,5.4201668E1,5.9787548E1],"categories":[],"categories_nodes":[],"categories_segments":[],"categories_sizes":[],"default_left":[1,1,1,1,1,1,1,1,1,1,1,1,1,1,1,0,0,0,0,0,0,0,0,0,0,0,0,0,0,0,0],"id":6,"left_children":[1,3,5,7,9,11,13,15,17,19,21,23,25,27,29,-1,-1,-1,-1,-1,-1,-1,-1,-1,-1,-1,-1,-1,-1,-1,-1],"loss_changes":[1.752672E6,4.94316E5,4.3912E5,8.8944E4,2.48456E5,1.39436E5,1.04836E5,9.095E3,4.70765E4,9.51E4,4.4182E4,3.7792E4,2.4548E4,3.2378E4,2.1763E4,0E0,0E0,0E0,0E0,0E0,0E0,0E0,0E0,0E0,0E0,0E0,0E0,0E0,0E0,0E0,0E0],"parents":[2147483647,0,0,1,1,2,2,3,3,4,4,5,5,6,6,7,7,8,8,9,9,10,10,11,11,12,12,13,13,14,14],"right_children":[2,4,6,8,10,12,14,16,18,20,22,24,26,28,30,-1,-1,-1,-1,-1,-1,-1,-1,-1,-1,-1,-1,-1,-1,-1,-1],"split_conditions":[-1.4499366E-1,-9.823044E-1,2.212869E-1,5.996807E-4,9.877431E-2,1.0430485E-1,1.2280415E0,-1.3664536E0,3.2004747E0,-2.691756E-1,-5.4055965E-1,1.4747357E-1,1.2354758E0,2.8961384E-1,3.597603E-1,1.1408162E0,1.3596543E0,1.6946386E0,1.160298E0,1.7336355E0,1.9769541E0,2.010922E0,2.1745934E0,1.9641613E0,2.1673343E0,2.2827609E0,2.4335773E0,2.4261577E0,2.6333795E0,2.7100835E0,2.9893775E0],"split_indices":[28,30,20,20,20,7,8,30,31,7,30,20,7,20,20,0,0,0,0,0,0,0,0,0,0,0,0,0,0,0,0],"split_type":[0,0,0,0,0,0,0,0,0,0,0,0,0,0,0,0,0,0,0,0,0,0,0,0,0,0,0,0,0,0,0],"sum_hessian":[8.162E4,4.2915E4,3.8705E4,8.451E3,3.4464E4,2.3728E4,1.4977E4,2.375E3,6.076E3,1.6549E4,1.7915E4,9.765E3,1.3963E4,1.0289E4,4.688E3,7.39E2,1.636E3,5.621E3,4.55E2,9.31E3,7.239E3,7.112E3,1.0803E4,4.196E3,5.569E3,9.765E3,4.198E3,7.511E3,2.778E3,3.673E3,1.015E3],"tree_param":{"num_deleted":"0","num_feature":"37","num_nodes":"31","size_leaf_vector":"0"}},{"base_weights":[4.021243E1,3.5985348E1,4.4840366E1,3.2261448E1,3.9343056E1,4.1986336E1,4.8106827E1,2.838111E1,3.450043E1,3.7964626E1,4.2440014E1,2.6870691E1,4.2387127E1,4.6131744E1,5.2075233E1,2.4318102E1,2.9908901E1,3.1067314E1,3.5269997E1,3.4759556E1,3.895305E1,4.1078213E1,4.47513E1,2.2859722E1,3.7339886E1,4.099859E1,4.5390053E1,4.5634773E1,5.0973408E1,5.0750744E1,5.6059944E1],"categories":[],"categories_nodes":[],"categories_segments":[],"categories_sizes":[],"default_left":[1,1,1,1,1,1,1,1,1,1,1,1,1,1,1,0,0,0,0,0,0,0,0,0,0,0,0,0,0,0,0],"id":7,"left_children":[1,3,5,7,9,11,13,15,17,19,21,23,25,27,29,-1,-1,-1,-1,-1,-1,-1,-1,-1,-1,-1,-1,-1,-1,-1,-1],"loss_changes":[1.595112E6,5.3218E5,3.61184E5,1.74812E5,9.414E4,1.24876E5,1.39936E5,4.52635E4,3.2791E4,4.7848E4,1.988E4,2.1821906E4,8.262E4,2.687E4,2.8964E4,0E0,0E0,0E0,0E0,0E0,0E0,0E0,0E0,0E0,0E0,0E0,0E0,0E0,0E0,0E0,0E0],"parents":[2147483647,0,0,1,1,2,2,3,3,4,4,5,5,6,6,7,7,8,8,9,9,10,10,11,11,12,12,13,13,14,14],"right_children":[2,4,6,8,10,12,14,16,18,20,22,24,26,28,30,-1,-1,-1,-1,-1,-1,-1,-1,-1,-1,-1,-1,-1,-1,-1,-1],"split_conditions":[1.4740868E-1,-4.573508E-1,2.7073425E-1,4.0014066E-2,2.6151472E-1,-2.6011806E0,2.6696378E-1,-1.1944262E0,-1.0913136E0,4.372886E-2,4.9019706E-1,6.332085E-1,2.1618047E-1,1.9190258E0,3.5268992E-1,1.2159051E0,1.4954451E0,1.5533657E0,1.7634999E0,1.7379779E0,1.9476525E0,2.0539107E0,2.237565E0,1.1429862E0,1.8669943E0,2.0499294E0,2.2695026E0,2.2817388E0,2.5486705E0,2.5375373E0,2.8029974E0],"split_indices":[20,7,8,20,30,19,20,30,30,20,14,1,20,7,20,0,0,0,0,0,0,0,0,0,0,0,0,0,0,0,0],"split_type":[0,0,0,0,0,0,0,0,0,0,0,0,0,0,0,0,0,0,0,0,0,0,0,0,0,0,0,0,0,0,0],"sum_hessian":[8.162E4,4.2662E4,3.8958E4,2.0233E4,2.2429E4,2.0799E4,1.8159E4,7.408E3,1.2825E4,1.553E4,6.899E3,5.39E2,2.026E4,1.2133E4,6.026E3,2.029E3,5.379E3,2.356E3,1.0469E4,3.669E3,1.1861E4,4.353E3,2.546E3,3.92E2,1.47E2,1.3864E4,6.396E3,1.1013E4,1.12E3,4.533E3,1.493E3],"tree_param":{"num_deleted":"0","num_feature":"37","num_nodes":"31","size_leaf_vector":"0"}},{"base_weights":[3.8202194E1,3.2766277E1,4.147952E1,2.8436316E1,3.5249386E1,3.860276E1,4.548163E1,2.4775501E1,3.0450441E1,3.5600487E1,2.260882E1,3.7112583E1,4.0927925E1,4.4218292E1,5.0351154E1,2.1528803E1,2.6353748E1,2.7589708E1,3.1854689E1,3.42408E1,3.8713905E1,2.5641167E1,1.8809431E1,3.5054707E1,3.8874023E1,3.9123955E1,4.238987E1,4.3654163E1,4.9068283E1,4.8578205E1,5.2970795E1],"categories":[],"categories_nodes":[],"categories_segments":[],"categories_sizes":[],"default_left":[1,1,1,1,1,1,1,1,1,1,1,1,1,1,1,0,0,0,0,0,0,0,0,0,0,0,0,0,0,0,0],"id":8,"left_children":[1,3,5,7,9,11,13,15,17,19,21,23,25,27,29,-1,-1,-1,-1,-1,-1,-1,-1,-1,-1,-1,-1,-1,-1,-1,-1],"loss_changes":[1.452744E6,3.29132E5,5.84456E5,8.1797E4,8.5782E4,1.01144E5,1.28736E5,1.982125E4,2.81175E4,7.9026E4,5.6238438E3,6.413E4,2.8836E4,4.4126E4,1.776E4,0E0,0E0,0E0,0E0,0E0,0E0,0E0,0E0,0E0,0E0,0E0,0E0,0E0,0E0,0E0,0E0],"parents":[2147483647,0,0,1,1,2,2,3,3,4,4,5,5,6,6,7,7,8,8,9,9,10,10,11,11,12,12,13,13,14,14],"right_children":[2,4,6,8,10,12,14,16,18,20,22,24,26,28,30,-1,-1,-1,-1,-1,-1,-1,-1,-1,-1,-1,-1,-1,-1,-1,-1],"split_conditions":[-4.3474698E-1,6.721993E-2,1.8873924E-1,-1.1470118E0,3.2004747E0,4.829855E-1,3.0027682E-1,-3.532164E-2,-3.2595224E-3,1.6244209E-1,1.2079289E0,1.12554535E-1,1.6791752E-3,1.721522E0,1.5295005E0,1.0764402E0,1.3176874E0,1.3794855E0,1.5927345E0,1.71204E0,1.9356953E0,1.2820584E0,9.404716E-1,1.7527354E0,1.9437011E0,1.9561977E0,2.1194935E0,2.1827083E0,2.4534142E0,2.4289103E0,2.6485398E0],"split_indices":[30,20,20,7,31,7,20,20,20,20,0,20,28,7,30,0,0,0,0,0,0,0,0,0,0,0,0,0,0,0,0],"split_type":[0,0,0,0,0,0,0,0,0,0,0,0,0,0,0,0,0,0,0,0,0,0,0,0,0,0,0,0,0,0,0],"sum_hessian":[8.162E4,3.0704E4,5.0916E4,1.1195E4,1.9509E4,2.9629E4,2.1287E4,3.978E3,7.217E3,1.898E4,5.29E2,1.8067E4,1.1562E4,1.691E4,4.377E3,1.306E3,2.672E3,2.383E3,4.834E3,1.3219E4,5.761E3,2.91E2,2.38E2,8.342E3,9.725E3,5.188E3,6.374E3,1.5157E4,1.753E3,2.622E3,1.755E3],"tree_param":{"num_deleted":"0","num_feature":"37","num_nodes":"31","size_leaf_vector":"0"}},{"base_weights":[3.6292435E1,3.1420584E1,3.9598408E1,2.7519564E1,3.3933258E1,3.6980743E1,4.3566483E1,2.3992645E1,2.9485136E1,3.426372E1,2.1733742E1,3.5839664E1,3.9702286E1,4.2336063E1,4.7987255E1,2.1485615E1,2.5975006E1,2.6344265E1,3.0598066E1,3.2950703E1,3.7082874E1,2.0079218E1,2.9636183E1,3.3768776E1,3.74173E1,3.8495914E1,4.179633E1,4.170063E1,4.6372177E1,4.6589382E1,5.0977528E1],"categories":[],"categories_nodes":[],"categories_segments":[],"categories_sizes":[],"default_left":[1,1,1,1,1,1,1,1,1,1,1,1,1,1,1,0,0,0,0,0,0,0,0,0,0,0,0,0,0,0,0],"id":9,"left_children":[1,3,5,7,9,11,13,15,17,19,21,23,25,27,29,-1,-1,-1,-1,-1,-1,-1,-1,-1,-1,-1,-1,-1,-1,-1,-1],"loss_changes":[1.31336E6,3.22542E5,5.03416E5,8.8957E4,8.0158E4,8.9572E4,1.03056E5,2.247225E4,2.82105E4,7.1098E4,6.3607188E3,6.6222E4,2.0235E4,3.6848E4,1.5177E4,0E0,0E0,0E0,0E0,0E0,0E0,0E0,0E0,0E0,0E0,0E0,0E0,0E0,0E0,0E0,0E0],"parents":[2147483647,0,0,1,1,2,2,3,3,4,4,5,5,6,6,7,7,8,8,9,9,10,10,11,11,12,12,13,13,14,14],"right_children":[2,4,6,8,10,12,14,16,18,20,22,24,26,28,30,-1,-1,-1,-1,-1,-1,-1,-1,-1,-1,-1,-1,-1,-1,-1,-1],"split_conditions":[-3.8323587E-1,7.604458E-2,1.953373E-1,-1.1080947E0,3.1736639E0,7.545122E-1,3.0241424E-1,-2.7954872E-3,-8.300742E-3,1.6560522E-1,6.332085E-1,1.12554535E-1,4.3725628E-1,1.5914586E0,3.6268234E-1,1.0742807E0,1.2987503E0,1.3172133E0,1.5299033E0,1.6475352E0,1.8541437E0,1.003961E0,1.4818091E0,1.6884388E0,1.8708651E0,1.9247957E0,2.0898166E0,2.0850315E0,2.318609E0,2.3294692E0,2.5488765E0],"split_indices":[30,20,20,7,31,7,20,20,20,20,1,20,28,7,20,0,0,0,0,0,0,0,0,0,0,0,0,0,0,0,0],"split_type":[0,0,0,0,0,0,0,0,0,0,0,0,0,0,0,0,0,0,0,0,0,0,0,0,0,0,0,0,0,0,0],"sum_hessian":[8.162E4,3.3E4,4.862E4,1.2933E4,2.0067E4,2.9301E4,1.9319E4,4.633E3,8.3E3,1.9536E4,5.31E2,2.0655E4,8.646E3,1.5121E4,4.198E3,2.051E3,2.582E3,2.178E3,6.122E3,1.3337E4,6.199E3,4.42E2,8.9E1,8.941E3,1.1714E4,5.498E3,3.148E3,1.3074E4,2.047E3,2.872E3,1.326E3],"tree_param":{"num_deleted":"0","num_feature":"37","num_nodes":"31","size_leaf_vector":"0"}},{"base_weights":[3.4478157E1,3.0394053E1,3.8065716E1,2.677578E1,3.309949E1,3.5291653E1,4.07733E1,2.3342567E1,2.8515574E1,3.1980011E1,3.6346104E1,2.2680653E1,3.5620914E1,3.9044846E1,4.4327995E1,1.97543E1,2.4520004E1,3.1021053E1,2.751552E1,2.8549273E1,3.2752583E1,3.4998383E1,3.8535133E1,1.8816168E1,3.0121473E1,3.4378597E1,3.818709E1,3.7973274E1,4.0756374E1,4.307466E1,4.755958E1],"categories":[],"categories_nodes":[],"categories_segments":[],"categories_sizes":[],"default_left":[1,1,1,1,1,1,1,1,1,1,1,1,1,1,1,0,0,0,0,0,0,0,0,0,0,0,0,0,0,0,0],"id":10,"left_children":[1,3,5,7,9,11,13,15,17,19,21,23,25,27,29,-1,-1,-1,-1,-1,-1,-1,-1,-1,-1,-1,-1,-1,-1,-1,-1],"loss_changes":[1.194752E6,3.728E5,3.24896E5,9.6916E4,7.8208E4,8.833E4,1.33324E5,2.275275E4,2.6303E4,4.2128E4,1.5149E4,1.52196875E4,6.538E4,2.5592E4,2.7048E4,0E0,0E0,0E0,0E0,0E0,0E0,0E0,0E0,0E0,0E0,0E0,0E0,0E0,0E0,0E0,0E0],"parents":[2147483647,0,0,1,1,2,2,3,3,4,4,5,5,6,6,7,7,8,8,9,9,10,10,11,11,12,12,13,13,14,14],"right_children":[2,4,6,8,10,12,14,16,18,20,22,24,26,28,30,-1,-1,-1,-1,-1,-1,-1,-1,-1,-1,-1,-1,-1,-1,-1,-1],"split_conditions":[1.3431284E-1,-5.8028257E-1,1.2371521E-1,2.4272673E-2,2.948997E-1,-2.6011806E0,2.589012E-1,-1.4826121E0,-8.3389604E-1,2.3021607E-2,4.9019706E-1,-8.078613E-1,2.0486122E-1,8.615953E-1,3.3845168E-1,9.8771495E-1,1.2260002E0,1.5510527E0,1.375776E0,1.4274637E0,1.6376292E0,1.7499192E0,1.9267567E0,9.408084E-1,1.5060737E0,1.7189299E0,1.9093546E0,1.8986638E0,2.0378187E0,2.153733E0,2.377979E0],"split_indices":[20,7,8,20,30,19,20,7,0,20,14,7,20,7,20,0,0,0,0,0,0,0,0,0,0,0,0,0,0,0,0],"split_type":[0,0,0,0,0,0,0,0,0,0,0,0,0,0,0,0,0,0,0,0,0,0,0,0,0,0,0,0,0,0,0],"sum_hessian":[8.162E4,3.8173E4,4.3447E4,1.6336E4,2.1837E4,2.1467E4,2.198E4,5.499E3,1.0837E4,1.6246E4,5.591E3,5.48E2,2.0919E4,1.4797E4,7.183E3,1.363E3,4.136E3,3.083E3,7.754E3,2.993E3,1.3253E4,3.471E3,2.12E3,3.63E2,1.85E2,1.4105E4,6.814E3,9.114E3,5.683E3,5.186E3,1.997E3],"tree_param":{"num_deleted":"0","num_feature":"37","num_nodes":"31","size_leaf_vector":"0"}},{"base_weights":[3.2754574E1,2.7494797E1,3.530686E1,2.3720684E1,2.9542149E1,3.280309E1,3.8812614E1,2.0511467E1,2.5307959E1,2.4634169E1,3.02704E1,3.1268839E1,3.4673603E1,3.7367504E1,4.2126217E1,1.9874617E1,2.5984789E1,2.2271425E1,2.6518686E1,2.585205E1,1.6767271E1,2.8629412E1,3.1713505E1,2.927806E1,3.2821438E1,3.324425E1,3.611046E1,3.5349308E1,3.835752E1,4.083726E1,4.5236465E1],"categories":[],"categories_nodes":[],"categories_segments":[],"categories_sizes":[],"default_left":[1,1,1,1,1,1,1,1,1,1,1,1,1,1,1,0,0,0,0,0,0,0,0,0,0,0,0,0,0,0,0],"id":11,"left_children":[1,3,5,7,9,11,13,15,17,19,21,23,25,27,29,-1,-1,-1,-1,-1,-1,-1,-1,-1,-1,-1,-1,-1,-1,-1,-1],"loss_changes":[1.094752E6,2.05382E5,4.81072E5,4.7287E4,6.1043E4,9.0932E4,1.08028E5,1.0327375E4,2.2479E4,2.101825E4,3.473E4,5.3516E4,2.8454E4,3.0508E4,2.5987E4,0E0,0E0,0E0,0E0,0E0,0E0,0E0,0E0,0E0,0E0,0E0,0E0,0E0,0E0,0E0,0E0],"parents":[2147483647,0,0,1,1,2,2,3,3,4,4,5,5,6,6,7,7,8,8,9,9,10,10,11,11,12,12,13,13,14,14],"right_children":[2,4,6,8,10,12,14,16,18,20,22,24,26,28,30,-1,-1,-1,-1,-1,-1,-1,-1,-1,-1,-1,-1,-1,-1,-1,-1],"split_conditions":[-5.242847E-1,5.9551753E-2,1.8577896E-1,-1.2399049E0,-1.1127871E0,2.811391E-1,2.736755E-1,1.1118782E0,-2.0117365E-2,3.6149821E0,1.260216E-1,1.0403557E-1,7.0912676E-4,1.596872E-2,1.6498731E0,9.9373084E-1,1.2992395E0,1.1135713E0,1.3259343E0,1.2926025E0,8.383636E-1,1.4314706E0,1.5856752E0,1.4639031E0,1.6410719E0,1.6622126E0,1.8055229E0,1.7674655E0,1.9178761E0,2.0418632E0,2.2618234E0],"split_indices":[30,20,20,7,30,7,20,1,20,31,20,20,28,8,30,0,0,0,0,0,0,0,0,0,0,0,0,0,0,0,0],"split_type":[0,0,0,0,0,0,0,0,0,0,0,0,0,0,0,0,0,0,0,0,0,0,0,0,0,0,0,0,0,0,0],"sum_hessian":[8.162E4,2.667E4,5.495E4,9.384E3,1.7286E4,3.2062E4,2.2888E4,3.11E3,6.274E3,2.238E3,1.5048E4,1.7624E4,1.4438E4,1.5946E4,6.942E3,2.79E3,3.2E2,1.794E3,4.48E3,1.936E3,3.02E2,7.051E3,7.997E3,7.731E3,9.893E3,7.25E3,7.188E3,5.26E3,1.0686E4,4.918E3,2.024E3],"tree_param":{"num_deleted":"0","num_feature":"37","num_nodes":"31","size_leaf_vector":"0"}},{"base_weights":[3.1117146E1,2.7502998E1,3.4473476E1,2.4280043E1,2.9865808E1,3.2446056E1,3.825162E1,2.1368319E1,2.630221E1,2.7433187E1,3.1216625E1,3.1347075E1,3.4525898E1,3.7255306E1,4.2155266E1,1.8638077E1,2.2898914E1,2.3717844E1,2.7237574E1,2.80094E1,1.7357147E1,3.0132648E1,3.343365E1,2.8355268E1,3.24618E1,3.677433E1,3.3523518E1,3.6714508E1,4.1752117E1,4.0130627E1,4.4266308E1],"categories":[],"categories_nodes":[],"categories_segments":[],"categories_sizes":[],"default_left":[1,1,1,1,1,1,1,1,1,1,1,1,0,1,1,0,0,0,0,0,0,0,0,0,0,0,0,0,0,0,0],"id":12,"left_children":[1,3,5,7,9,11,13,15,17,19,21,23,25,27,29,-1,-1,-1,-1,-1,-1,-1,-1,-1,-1,-1,-1,-1,-1,-1,-1],"loss_changes":[9.89136E5,2.986E5,3.22892E5,9.7367E4,7.3654E4,6.1878E4,5.5882E4,2.80815E4,2.307E4,4.65655E4,3.4012E4,5.9222E4,2.0207E4,2.7109E4,1.1029E4,0E0,0E0,0E0,0E0,0E0,0E0,0E0,0E0,0E0,0E0,0E0,0E0,0E0,0E0,0E0,0E0],"parents":[2147483647,0,0,1,1,2,2,3,3,4,4,5,5,6,6,7,7,8,8,9,9,10,10,11,11,12,12,13,13,14,14],"right_children":[2,4,6,8,10,12,14,16,18,20,22,24,26,28,30,-1,-1,-1,-1,-1,-1,-1,-1,-1,-1,-1,-1,-1,-1,-1,-1],"split_conditions":[-2.3856226E-1,8.9247406E-2,2.134645E-1,-9.535394E-1,-7.300436E-1,2.7047843E-1,3.2055038E-1,-5.4536248E-3,6.7858174E-3,3.2004747E0,1.8393111E-1,9.411304E-2,-6.8805134E-1,1.9406552E0,9.9221075E-1,9.3190384E-1,1.1449457E0,1.1858922E0,1.3618788E0,1.40047E0,8.678574E-1,1.5066324E0,1.6716826E0,1.4177635E0,1.62309E0,1.8387165E0,1.676176E0,1.8357254E0,2.087606E0,2.0065315E0,2.2133155E0],"split_indices":[30,20,20,7,30,14,20,20,20,31,20,20,0,7,1,0,0,0,0,0,0,0,0,0,0,0,0,0,0,0,0],"split_type":[0,0,0,0,0,0,0,0,0,0,0,0,0,0,0,0,0,0,0,0,0,0,0,0,0,0,0,0,0,0,0],"sum_hessian":[8.162E4,3.9305E4,4.2315E4,1.6631E4,2.2674E4,2.7544E4,1.4771E4,6.821E3,9.81E3,8.103E3,1.4571E4,1.8032E4,9.512E3,1.1776E4,2.995E3,2.455E3,4.366E3,2.614E3,7.196E3,7.663E3,4.4E2,9.796E3,4.775E3,4.902E3,1.313E4,2.922E3,6.59E3,1.052E4,1.256E3,1.539E3,1.456E3],"tree_param":{"num_deleted":"0","num_feature":"37","num_nodes":"31","size_leaf_vector":"0"}},{"base_weights":[2.956159E1,2.6472624E1,3.3133957E1,2.327641E1,2.8427082E1,3.165378E1,3.7079266E1,2.0366095E1,2.5513613E1,2.6798788E1,3.045767E1,2.8694414E1,3.2842426E1,3.5736645E1,3.9907715E1,1.7440458E1,2.1544212E1,2.6048172E1,1.7037287E1,2.4260153E1,2.763138E1,3.073932E1,2.6303808E1,2.6951948E1,3.0550364E1,3.0946377E1,3.383667E1,3.4849106E1,3.9457268E1,3.8939808E1,4.253542E1],"categories":[],"categories_nodes":[],"categories_segments":[],"categories_sizes":[],"default_left":[1,1,1,1,1,1,1,1,1,1,1,1,1,1,1,0,0,0,0,0,0,0,0,0,0,0,0,0,0,0,0],"id":13,"left_children":[1,3,5,7,9,11,13,15,17,19,21,23,25,27,29,-1,-1,-1,-1,-1,-1,-1,-1,-1,-1,-1,-1,-1,-1,-1,-1],"loss_changes":[8.998E5,2.72806E5,2.19832E5,1.07673E5,8.899E4,9.5888E4,3.7762E4,2.4534E4,4.21075E4,3.1208E4,1.3324E4,2.47115E4,3.5962E4,2.1764E4,6.77E3,0E0,0E0,0E0,0E0,0E0,0E0,0E0,0E0,0E0,0E0,0E0,0E0,0E0,0E0,0E0,0E0],"parents":[2147483647,0,0,1,1,2,2,3,3,4,4,5,5,6,6,7,7,8,8,9,9,10,10,11,11,12,12,13,13,14,14],"right_children":[2,4,6,8,10,12,14,16,18,20,22,24,26,28,30,-1,-1,-1,-1,-1,-1,-1,-1,-1,-1,-1,-1,-1,-1,-1,-1],"split_conditions":[-1.22306824E-1,-7.089095E-1,2.4932048E-1,6.0153894E-2,1.1559384E-1,-2.6590252E-1,1.3886657E0,-3.625442E-2,1.1621552E0,2.3021607E-2,1.6454628E0,-2.0048973E-1,-6.2329906E-1,1.351213E0,3.633814E-1,8.720229E-1,1.0772107E0,1.3024086E0,8.5186434E-1,1.2130077E0,1.381569E0,1.5369661E0,1.3151904E0,1.3475975E0,1.5275182E0,1.5473188E0,1.6918335E0,1.7424554E0,1.9728634E0,1.9469904E0,2.126771E0],"split_indices":[28,7,20,20,20,8,8,20,27,20,0,7,1,1,20,0,0,0,0,0,0,0,0,0,0,0,0,0,0,0,0],"split_type":[0,0,0,0,0,0,0,0,0,0,0,0,0,0,0,0,0,0,0,0,0,0,0,0,0,0,0,0,0,0,0],"sum_hessian":[8.162E4,4.3776E4,3.7844E4,1.6616E4,2.716E4,2.7526E4,1.0318E4,7.226E3,9.39E3,1.5081E4,1.2079E4,7.895E3,1.9631E4,7.006E3,3.312E3,2.079E3,5.147E3,8.831E3,5.59E2,3.732E3,1.1349E4,1.1306E4,7.73E2,4.08E3,3.815E3,6.764E3,1.2867E4,5.665E3,1.341E3,2.432E3,8.8E2],"tree_param":{"num_deleted":"0","num_feature":"37","num_nodes":"31","size_leaf_vector":"0"}},{"base_weights":[2.80838E1,2.540195E1,3.1848778E1,2.2765612E1,2.7963623E1,3.0018848E1,3.462983E1,2.0068857E1,2.4439398E1,2.6781113E1,2.9792103E1,3.033561E1,1.9134771E1,3.353566E1,3.790724E1,1.6825012E1,2.1181677E1,2.1633102E1,2.4991959E1,2.4476587E1,2.7674034E1,2.8796623E1,3.188094E1,2.9448095E1,3.274062E1,1.5098934E1,2.5029823E1,3.3012535E1,3.6965263E1,3.6482765E1,3.9765938E1],"categories":[],"categories_nodes":[],"categories_segments":[],"categories_sizes":[],"default_left":[1,1,1,1,1,1,1,1,1,1,1,1,1,1,1,0,0,0,0,0,0,0,0,0,0,0,0,0,0,0,0],"id":14,"left_children":[1,3,5,7,9,11,13,15,17,19,21,23,25,27,29,-1,-1,-1,-1,-1,-1,-1,-1,-1,-1,-1,-1,-1,-1,-1,-1],"loss_changes":[8.23332E5,3.21314E5,1.71736E5,1.05578E5,5.1472E4,7.0042E4,4.7022E4,3.215E4,2.1936E4,2.9551E4,1.8805E4,4.152E4,1.34686875E4,1.6909E4,7.4535E3,0E0,0E0,0E0,0E0,0E0,0E0,0E0,0E0,0E0,0E0,0E0,0E0,0E0,0E0,0E0,0E0],"parents":[2147483647,0,0,1,1,2,2,3,3,4,4,5,5,6,6,7,7,8,8,9,9,10,10,11,11,12,12,13,13,14,14],"right_children":[2,4,6,8,10,12,14,16,18,20,22,24,26,28,30,-1,-1,-1,-1,-1,-1,-1,-1,-1,-1,-1,-1,-1,-1,-1,-1],"split_conditions":[1.6154379E-1,-3.8971174E-1,5.119096E-1,5.1573925E-2,1.3900067E-1,2.3639026E0,3.0106843E-1,-1.1816015E0,-1.0790912E0,6.357229E-2,1.0651368E0,2.3666857E-1,-8.0788606E-1,1.9076715E0,9.9221075E-1,8.412506E-1,1.0590838E0,1.0816551E0,1.2495979E0,1.2238294E0,1.3837017E0,1.4398311E0,1.594047E0,1.4724048E0,1.637031E0,7.549467E-1,1.2514912E0,1.6506268E0,1.8482631E0,1.8241383E0,1.9882969E0],"split_indices":[20,7,8,20,29,31,20,30,30,20,7,20,7,7,1,0,0,0,0,0,0,0,0,0,0,0,0,0,0,0,0],"split_type":[0,0,0,0,0,0,0,0,0,0,0,0,0,0,0,0,0,0,0,0,0,0,0,0,0,0,0,0,0,0,0],"sum_hessian":[8.162E4,4.7671E4,3.3949E4,2.3498E4,2.4173E4,2.0483E4,1.3466E4,9.004E3,1.4494E4,1.4689E4,9.484E3,1.9902E4,5.81E2,1.0104E4,3.362E3,2.304E3,6.7E3,2.391E3,1.2103E4,4.11E3,1.0579E4,6.433E3,3.051E3,1.4547E4,5.355E3,3.47E2,2.34E2,8.776E3,1.328E3,1.915E3,1.447E3],"tree_param":{"num_deleted":"0","num_feature":"37","num_nodes":"31","size_leaf_vector":"0"}},{"base_weights":[2.6679882E1,2.23266E1,2.8792305E1,1.966959E1,2.4284925E1,2.671801E1,3.1696728E1,1.6180668E1,2.0767193E1,2.4596033E1,1.50149975E1,2.5620094E1,2.869903E1,3.0372114E1,3.4268772E1,1.7139685E1,1.2510874E1,1.788356E1,2.168079E1,2.3237736E1,2.5960001E1,1.7315596E1,1.2272858E1,2.332827E1,2.6727337E1,2.7503473E1,3.0183191E1,2.9658659E1,3.2139774E1,3.3563255E1,3.8970425E1],"categories":[],"categories_nodes":[],"categories_segments":[],"categories_sizes":[],"default_left":[1,1,1,1,1,1,1,1,1,1,1,1,1,1,1,0,0,0,0,0,0,0,0,0,0,0,0,0,0,0,0],"id":15,"left_children":[1,3,5,7,9,11,13,15,17,19,21,23,25,27,29,-1,-1,-1,-1,-1,-1,-1,-1,-1,-1,-1,-1,-1,-1,-1,-1],"loss_changes":[7.49948E5,1.383E5,3.30208E5,4.3021E4,4.3899E4,6.9002E4,7.6942E4,9.3371875E3,2.22925E4,2.691E4,2.948086E3,5.1751E4,1.9442E4,1.8112E4,2.4475E4,0E0,0E0,0E0,0E0,0E0,0E0,0E0,0E0,0E0,0E0,0E0,0E0,0E0,0E0,0E0,0E0],"parents":[2147483647,0,0,1,1,2,2,3,3,4,4,5,5,6,6,7,7,8,8,9,9,10,10,11,11,12,12,13,13,14,14],"right_children":[2,4,6,8,10,12,14,16,18,20,22,24,26,28,30,-1,-1,-1,-1,-1,-1,-1,-1,-1,-1,-1,-1,-1,-1,-1,-1],"split_conditions":[-5.242847E-1,7.613186E-2,1.8577896E-1,-1.3566675E0,3.2004747E0,1.3249445E-1,8.1929696E-1,1.0620842E0,-1.8828401E-2,1.34529E-1,1.2079289E0,8.632517E-2,3.4351158E-1,2.5889468E-1,2.5404544E0,8.5698426E-1,6.255437E-1,8.9417803E-1,1.0840396E0,1.1618868E0,1.2980001E0,8.657798E-1,6.136429E-1,1.1664135E0,1.3363669E0,1.3751737E0,1.5091596E0,1.4829329E0,1.6069888E0,1.6781628E0,1.9485213E0],"split_indices":[30,20,20,7,31,14,30,0,20,20,0,20,30,20,7,0,0,0,0,0,0,0,0,0,0,0,0,0,0,0,0],"split_type":[0,0,0,0,0,0,0,0,0,0,0,0,0,0,0,0,0,0,0,0,0,0,0,0,0,0,0,0,0,0,0],"sum_hessian":[8.162E4,2.667E4,5.495E4,1.1321E4,1.5349E4,3.2062E4,2.2888E4,2.713E3,8.608E3,1.4849E4,5E2,2.0638E4,1.1424E4,1.5116E4,7.772E3,2.148E3,5.65E2,2.076E3,6.532E3,7.449E3,7.4E3,2.69E2,2.31E2,6.73E3,1.3908E4,6.338E3,5.086E3,1.0782E4,4.334E3,6.765E3,1.007E3],"tree_param":{"num_deleted":"0","num_feature":"37","num_nodes":"31","size_leaf_vector":"0"}},{"base_weights":[2.5346127E1,2.2776566E1,2.8608738E1,2.0118229E1,2.4842743E1,2.6865849E1,3.1514277E1,1.749605E1,2.173221E1,2.238144E1,2.582492E1,2.591838E1,2.8714788E1,3.0705883E1,3.497265E1,1.5033129E1,1.872479E1,1.9433529E1,2.2518217E1,2.2937338E1,1.4286591E1,2.4956572E1,2.780709E1,2.4016743E1,2.6866682E1,3.0955843E1,2.7679247E1,3.019842E1,3.4416225E1,3.3049343E1,3.6864E1],"categories":[],"categories_nodes":[],"categories_segments":[],"categories_sizes":[],"default_left":[1,1,1,1,1,1,1,1,1,1,1,1,0,1,1,0,0,0,0,0,0,0,0,0,0,0,0,0,0,0,0],"id":16,"left_children":[1,3,5,7,9,11,13,15,17,19,21,23,25,27,29,-1,-1,-1,-1,-1,-1,-1,-1,-1,-1,-1,-1,-1,-1,-1,-1],"loss_changes":[6.83616E5,2.50318E5,1.81242E5,8.41615E4,6.1526E4,3.864E4,3.6602E4,2.276675E4,2.1896E4,3.267925E4,3.0902E4,2.6179E4,1.6799E4,1.9541E4,8.04325E3,0E0,0E0,0E0,0E0,0E0,0E0,0E0,0E0,0E0,0E0,0E0,0E0,0E0,0E0,0E0,0E0],"parents":[2147483647,0,0,1,1,2,2,3,3,4,4,5,5,6,6,7,7,8,8,9,9,10,10,11,11,12,12,13,13,14,14],"right_children":[2,4,6,8,10,12,14,16,18,20,22,24,26,28,30,-1,-1,-1,-1,-1,-1,-1,-1,-1,-1,-1,-1,-1,-1,-1,-1],"split_conditions":[-8.569108E-2,9.7910054E-2,2.134645E-1,-9.31656E-1,-7.300436E-1,3.5017607E-1,3.283863E-1,-5.4536248E-3,1.1888896E-2,2.7816477E0,1.9594371E-1,1.126914E-1,-6.8805134E-1,1.9493062E0,9.9221075E-1,7.516565E-1,9.3623954E-1,9.7167647E-1,1.1259109E0,1.1468669E0,7.1432954E-1,1.2478286E0,1.3903545E0,1.2008371E0,1.3433341E0,1.5477922E0,1.3839624E0,1.509921E0,1.7208112E0,1.6524671E0,1.8432E0],"split_indices":[30,20,20,7,30,14,20,20,20,31,20,20,0,7,1,0,0,0,0,0,0,0,0,0,0,0,0,0,0,0,0],"split_type":[0,0,0,0,0,0,0,0,0,0,0,0,0,0,0,0,0,0,0,0,0,0,0,0,0,0,0,0,0,0,0],"sum_hessian":[8.162E4,4.5664E4,3.5956E4,1.9975E4,2.5689E4,2.2481E4,1.3475E4,7.615E3,1.236E4,7.334E3,1.8355E4,1.4874E4,7.607E3,1.093E4,2.545E3,2.539E3,5.076E3,3.156E3,9.204E3,6.861E3,4.73E2,1.2773E4,5.582E3,4.958E3,9.916E3,2.395E3,5.212E3,9.623E3,1.307E3,1.271E3,1.274E3],"tree_param":{"num_deleted":"0","num_feature":"37","num_nodes":"31","size_leaf_vector":"0"}},{"base_weights":[2.4079071E1,2.125001E1,2.6765108E1,1.8995344E1,2.3565681E1,2.531953E1,2.956948E1,1.6354794E1,2.016292E1,2.285547E1,2.6632616E1,2.2918709E1,2.6290854E1,2.8336502E1,3.2051914E1,1.5811502E1,2.2791376E1,2.2194265E1,1.933341E1,2.2167004E1,2.4860683E1,2.4612272E1,2.8024923E1,2.333647E1,1.3895218E1,2.5404697E1,2.7778414E1,2.7802866E1,3.1047491E1,3.1189102E1,3.473417E1],"categories":[],"categories_nodes":[],"categories_segments":[],"categories_sizes":[],"default_left":[1,1,1,1,1,1,1,1,1,1,1,1,1,1,1,0,0,0,0,0,0,0,0,0,0,0,0,0,0,0,0],"id":17,"left_children":[1,3,5,7,9,11,13,15,17,19,21,23,25,27,29,-1,-1,-1,-1,-1,-1,-1,-1,-1,-1,-1,-1,-1,-1,-1,-1],"loss_changes":[6.19668E5,2.07126E5,1.68968E5,6.179E4,4.2104E4,6.3834E4,4.2659E4,2.126125E4,2.3106E4,2.144E4,9.66475E3,2.970875E4,2.5218E4,1.2908E4,9.8305E3,0E0,0E0,0E0,0E0,0E0,0E0,0E0,0E0,0E0,0E0,0E0,0E0,0E0,0E0,0E0,0E0],"parents":[2147483647,0,0,1,1,2,2,3,3,4,4,5,5,6,6,7,7,8,8,9,9,10,10,11,11,12,12,13,13,14,14],"right_children":[2,4,6,8,10,12,14,16,18,20,22,24,26,28,30,-1,-1,-1,-1,-1,-1,-1,-1,-1,-1,-1,-1,-1,-1,-1,-1],"split_conditions":[1.3904181E-1,-4.1469157E-1,5.649197E-1,2.4026293E-2,8.916648E-1,-5.7765007E-1,2.7463397E-1,1.3079016E-2,-8.3389604E-1,3.0192152E-1,-6.2329906E-1,3.1862946E0,2.1335989E-1,1.7524467E0,3.633814E-1,7.9057515E-1,1.1395688E0,1.1097133E0,9.666705E-1,1.1083502E0,1.2430342E0,1.2306136E0,1.4012462E0,1.1668235E0,6.947609E-1,1.270235E0,1.3889207E0,1.3901433E0,1.5523746E0,1.5594552E0,1.7367085E0],"split_indices":[20,7,8,20,4,8,20,34,0,14,1,31,20,7,20,0,0,0,0,0,0,0,0,0,0,0,0,0,0,0,0],"split_type":[0,0,0,0,0,0,0,0,0,0,0,0,0,0,0,0,0,0,0,0,0,0,0,0,0,0,0,0,0,0,0],"sum_hessian":[8.162E4,3.9756E4,4.1864E4,2.0148E4,1.9608E4,2.7631E4,1.4233E4,6.182E3,1.3966E4,1.5928E4,3.68E3,7.966E3,1.9665E4,9.518E3,4.715E3,5.704E3,4.78E2,4.042E3,9.924E3,1.1866E4,4.062E3,1.509E3,2.171E3,7.612E3,3.54E2,1.2335E4,7.33E3,7.962E3,1.556E3,3.577E3,1.138E3],"tree_param":{"num_deleted":"0","num_feature":"37","num_nodes":"31","size_leaf_vector":"0"}},{"base_weights":[2.287536E1,2.023131E1,2.5499487E1,1.7770182E1,2.1993479E1,2.4030663E1,2.8417278E1,1.5475059E1,1.931481E1,1.9655697E1,2.2828098E1,2.2868357E1,2.538684E1,2.777344E1,3.2299797E1,1.2720753E1,1.6395699E1,4.3254213E0,1.9420074E1,2.0184425E1,1.2107892E1,2.2121113E1,2.4853792E1,1.9939852E1,2.3560875E1,2.740332E1,2.4571472E1,2.4657454E1,2.8310246E1,3.1521755E1,3.8223064E1],"categories":[],"categories_nodes":[],"categories_segments":[],"categories_sizes":[],"default_left":[1,1,1,1,1,1,1,1,1,1,1,1,0,1,1,0,0,0,0,0,0,0,0,0,0,0,0,0,0,0,0],"id":18,"left_children":[1,3,5,7,9,11,13,15,17,19,21,23,25,27,29,-1,-1,-1,-1,-1,-1,-1,-1,-1,-1,-1,-1,-1,-1,-1,-1],"loss_changes":[5.65796E5,1.75953E5,1.74866E5,5.9865E4,4.5776E4,4.2376E4,3.3373E4,1.7115375E4,1.59155E4,2.465775E4,2.4444E4,2.93115E4,1.9991E4,1.8984E4,7.754125E3,0E0,0E0,0E0,0E0,0E0,0E0,0E0,0E0,0E0,0E0,0E0,0E0,0E0,0E0,0E0,0E0],"parents":[2147483647,0,0,1,1,2,2,3,3,4,4,5,5,6,6,7,7,8,8,9,9,10,10,11,11,12,12,13,13,14,14],"right_children":[2,4,6,8,10,12,14,16,18,20,22,24,26,28,30,-1,-1,-1,-1,-1,-1,-1,-1,-1,-1,-1,-1,-1,-1,-1,-1],"split_conditions":[-2.0826283E-1,8.9247406E-2,2.1872893E-1,-9.535394E-1,-8.074597E-1,1.8717963E-2,1.9757378E0,-3.5349082E-2,-2.6552894E0,3.2004747E0,1.9614893E-1,7.3467046E-2,-6.8805134E-1,-6.2329906E-1,1.2913792E0,6.3603765E-1,8.1978494E-1,2.1627107E-1,9.710037E-1,1.0092213E0,6.053946E-1,1.1060556E0,1.2426896E0,9.969926E-1,1.1780437E0,1.3701661E0,1.2285737E0,1.2328727E0,1.4155123E0,1.5760878E0,1.9111532E0],"split_indices":[30,20,20,7,30,14,7,20,35,31,20,20,0,1,1,0,0,0,0,0,0,0,0,0,0,0,0,0,0,0,0],"split_type":[0,0,0,0,0,0,0,0,0,0,0,0,0,0,0,0,0,0,0,0,0,0,0,0,0,0,0,0,0,0,0],"sum_hessian":[8.162E4,4.066E4,4.096E4,1.697E4,2.369E4,2.7251E4,1.3709E4,6.831E3,1.0139E4,6.239E3,1.7451E4,1.4684E4,1.2567E4,1.1766E4,1.943E3,1.715E3,5.116E3,7.1E1,1.0068E4,5.829E3,4.1E2,1.2945E4,4.506E3,2.814E3,1.187E4,3.609E3,8.958E3,1.736E3,1.003E4,1.723E3,2.2E2],"tree_param":{"num_deleted":"0","num_feature":"37","num_nodes":"31","size_leaf_vector":"0"}},{"base_weights":[2.1731808E1,1.9722326E1,2.4873928E1,1.7858133E1,2.2054604E1,2.3431633E1,2.7146866E1,1.52733965E1,1.894768E1,2.1336342E1,2.4100168E1,2.3695559E1,1.4234525E1,2.8587364E1,2.5570332E1,1.8884846E1,1.4503316E1,1.848172E1,2.1800905E1,1.859219E1,2.1770348E1,2.134016E1,2.4756649E1,2.3212969E1,2.6850658E1,1.16139E1,2.0596478E1,2.4941044E1,2.9225578E1,2.4255156E1,2.661772E1],"categories":[],"categories_nodes":[],"categories_segments":[],"categories_sizes":[],"default_left":[1,1,1,1,1,1,1,1,1,1,1,1,1,1,1,0,0,0,0,0,0,0,0,0,0,0,0,0,0,0,0],"id":19,"left_children":[1,3,5,7,9,11,13,15,17,19,21,23,25,27,29,-1,-1,-1,-1,-1,-1,-1,-1,-1,-1,-1,-1,-1,-1,-1,-1],"loss_changes":[5.14868E5,2.16074E5,1.03722E5,7.7651E4,3.1976E4,4.6954E4,2.7321E4,2.2564625E4,2.54755E4,1.9098E4,9.87025E3,2.8212E4,8.863867E3,1.4272E4,7.491E3,0E0,0E0,0E0,0E0,0E0,0E0,0E0,0E0,0E0,0E0,0E0,0E0,0E0,0E0,0E0,0E0],"parents":[2147483647,0,0,1,1,2,2,3,3,4,4,5,5,6,6,7,7,8,8,9,9,10,10,11,11,12,12,13,13,14,14],"right_children":[2,4,6,8,10,12,14,16,18,20,22,24,26,28,30,-1,-1,-1,-1,-1,-1,-1,-1,-1,-1,-1,-1,-1,-1,-1,-1],"split_conditions":[1.6771826E-1,-2.4193765E-1,5.653089E-1,3.7700765E-2,6.358469E-1,1.1592426E0,-1.0489966E0,-1.2714299E0,4.5553002E-1,3.173978E-2,-1.042135E0,8.9280003E-1,6.332085E-1,-6.2329906E-1,-8.47958E-2,9.442423E-1,7.251658E-1,9.2408603E-1,1.0900453E0,9.296095E-1,1.0885174E0,1.067008E0,1.2378324E0,1.1606485E0,1.342533E0,5.8069503E-1,1.0298239E0,1.2470522E0,1.4612789E0,1.2127578E0,1.330886E0],"split_indices":[20,7,8,20,18,27,24,0,14,20,1,14,1,1,1,0,0,0,0,0,0,0,0,0,0,0,0,0,0,0,0],"split_type":[0,0,0,0,0,0,0,0,0,0,0,0,0,0,0,0,0,0,0,0,0,0,0,0,0,0,0,0,0,0,0],"sum_hessian":[8.162E4,4.9787E4,3.1833E4,2.7675E4,2.2112E4,1.9482E4,1.2351E4,8.211E3,1.9464E4,1.6374E4,5.738E3,1.8937E4,5.45E2,6.445E3,5.906E3,1.439E3,6.772E3,1.6738E4,2.726E3,2.242E3,1.4132E4,1.109E3,4.629E3,1.6432E4,2.505E3,3.88E2,1.57E2,9.66E2,5.479E3,2.629E3,3.277E3],"tree_param":{"num_deleted":"0","num_feature":"37","num_nodes":"31","size_leaf_vector":"0"}},{"base_weights":[2.064543E1,1.8512589E1,2.3353539E1,1.6575478E1,2.046456E1,2.191695E1,2.5748466E1,1.4030602E1,1.7733213E1,1.2157791E1,2.0675266E1,2.1187277E1,2.3793598E1,2.518522E1,2.9478706E1,1.7056889E1,1.3169164E1,1.5016832E1,1.8235504E1,1.0572869E1,1.759595E1,1.9007805E1,2.1518866E1,2.0306383E1,2.2807705E1,2.5780699E1,2.280124E1,2.4781277E1,2.8896145E1,2.8728569E1,3.522612E1],"categories":[],"categories_nodes":[],"categories_segments":[],"categories_sizes":[],"default_left":[1,1,1,1,1,1,1,1,1,1,1,1,0,1,1,0,0,0,0,0,0,0,0,0,0,0,0,0,0,0,0],"id":20,"left_children":[1,3,5,7,9,11,13,15,17,19,21,23,25,27,29,-1,-1,-1,-1,-1,-1,-1,-1,-1,-1,-1,-1,-1,-1,-1,-1],"loss_changes":[4.71008E5,1.72327E5,1.23148E5,6.7295E4,3.9553E4,3.0282E4,2.7572E4,1.8475125E4,2.12195E4,4.6837266E3,3.0786E4,2.26565E4,1.18075E4,1.68445E4,6.584625E3,0E0,0E0,0E0,0E0,0E0,0E0,0E0,0E0,0E0,0E0,0E0,0E0,0E0,0E0,0E0,0E0],"parents":[2147483647,0,0,1,1,2,2,3,3,4,4,5,5,6,6,7,7,8,8,9,9,10,10,11,11,12,12,13,13,14,14],"right_children":[2,4,6,8,10,12,14,16,18,20,22,24,26,28,30,-1,-1,-1,-1,-1,-1,-1,-1,-1,-1,-1,-1,-1,-1,-1,-1],"split_conditions":[-8.569108E-2,1.11911856E-1,2.134645E-1,-1.0197171E0,-2.6011806E0,5.109551E-1,2.0683832E0,-8.3389604E-1,-8.252145E-3,6.332085E-1,-6.822764E-1,6.915413E-1,-6.8805134E-1,3.5212612E-1,1.351213E0,8.528444E-1,6.584582E-1,7.508416E-1,9.1177523E-1,5.286435E-1,8.7979746E-1,9.503903E-1,1.0759434E0,1.0153192E0,1.1403853E0,1.289035E0,1.1400621E0,1.2390639E0,1.4448073E0,1.4364284E0,1.761306E0],"split_indices":[30,20,20,7,19,14,7,0,20,1,8,4,0,20,1,0,0,0,0,0,0,0,0,0,0,0,0,0,0,0,0],"split_type":[0,0,0,0,0,0,0,0,0,0,0,0,0,0,0,0,0,0,0,0,0,0,0,0,0,0,0,0,0,0,0],"sum_hessian":[8.162E4,4.5664E4,3.5956E4,2.2924E4,2.274E4,2.2481E4,1.3475E4,7.172E3,1.5752E4,5.64E2,2.2176E4,1.6196E4,6.285E3,1.1714E4,1.761E3,1.585E3,5.587E3,2.463E3,1.3289E4,4.39E2,1.25E2,7.458E3,1.4718E4,1.0501E4,5.695E3,2.085E3,4.2E3,1.0571E4,1.143E3,1.563E3,1.98E2],"tree_param":{"num_deleted":"0","num_feature":"37","num_nodes":"31","size_leaf_vector":"0"}},{"base_weights":[1.9613367E1,1.7258835E1,2.186196E1,1.537747E1,1.9352558E1,2.0729786E1,2.4654272E1,1.26071825E1,1.6180798E1,1.7893602E1,2.0711788E1,2.1860903E1,1.9639885E1,2.3757673E1,2.7127352E1,9.70692E0,1.3601131E1,1.5588034E1,1.8624842E1,1.8224596E1,1.0222187E1,1.9574753E1,2.2133682E1,2.1263124E1,2.3437933E1,1.850413E1,2.0626299E1,2.3309525E1,2.6636942E1,2.6526026E1,3.1448912E1],"categories":[],"categories_nodes":[],"categories_segments":[],"categories_sizes":[],"default_left":[1,1,1,1,1,1,1,1,1,1,1,1,1,1,1,0,0,0,0,0,0,0,0,0,0,0,0,0,0,0,0],"id":21,"left_children":[1,3,5,7,9,11,13,15,17,19,21,23,25,27,29,-1,-1,-1,-1,-1,-1,-1,-1,-1,-1,-1,-1,-1,-1,-1,-1],"loss_changes":[4.31756E5,1.56776E5,1.31464E5,4.6548E4,3.7047E4,3.6196E4,2.6048E4,1.34945625E4,2.3298E4,2.2941E4,1.53495E4,1.32375E4,1.658E4,1.07895E4,7.47125E3,0E0,0E0,0E0,0E0,0E0,0E0,0E0,0E0,0E0,0E0,0E0,0E0,0E0,0E0,0E0,0E0],"parents":[2147483647,0,0,1,1,2,2,3,3,4,4,5,5,6,6,7,7,8,8,9,9,10,10,11,11,12,12,13,13,14,14],"right_children":[2,4,6,8,10,12,14,16,18,20,22,24,26,28,30,-1,-1,-1,-1,-1,-1,-1,-1,-1,-1,-1,-1,-1,-1,-1,-1],"split_conditions":[-1.5660337E-1,1.1689773E-1,2.2133605E-1,-1.0904896E0,-4.7169384E-1,-6.5097414E-2,1.477932E0,-3.719312E-2,1.8924056E-1,3.1736639E0,1.9615132E-1,9.871104E-1,-1.08992435E-1,1.351213E0,1.1118782E0,4.85346E-1,6.800566E-1,7.794017E-1,9.312421E-1,9.112298E-1,5.1110935E-1,9.7873765E-1,1.1066841E0,1.0631562E0,1.1718967E0,9.252065E-1,1.031315E0,1.1654762E0,1.3318471E0,1.3263013E0,1.5724456E0],"split_indices":[7,20,20,30,8,24,30,20,14,31,20,8,25,1,1,0,0,0,0,0,0,0,0,0,0,0,0,0,0,0,0],"split_type":[0,0,0,0,0,0,0,0,0,0,0,0,0,0,0,0,0,0,0,0,0,0,0,0,0,0,0,0,0,0,0],"sum_hessian":[8.162E4,3.9875E4,4.1745E4,2.1007E4,1.8868E4,2.9708E4,1.2037E4,4.726E3,1.6281E4,9.107E3,9.761E3,1.4569E4,1.5139E4,8.842E3,3.195E3,1.209E3,3.517E3,1.3109E4,3.172E3,8.729E3,3.78E2,5.432E3,4.329E3,1.0575E4,3.994E3,7.046E3,8.093E3,7.659E3,1.183E3,2.811E3,3.84E2],"tree_param":{"num_deleted":"0","num_feature":"37","num_nodes":"31","size_leaf_vector":"0"}},{"base_weights":[1.8632895E1,1.6428576E1,2.0833519E1,1.4317789E1,1.7871431E1,1.9110777E1,2.26281E1,1.1873702E1,1.5279655E1,1.6742563E1,1.8972673E1,1.7955599E1,2.0492832E1,2.4017502E1,2.1304401E1,9.281089E0,1.2862232E1,1.4704515E1,1.7876194E1,1.7013432E1,1.0079906E1,1.8797476E1,2.4309698E1,1.43047905E1,1.8489489E1,1.8940983E1,2.1463247E1,2.1028965E1,2.4625978E1,2.0280743E1,2.2037235E1],"categories":[],"categories_nodes":[],"categories_segments":[],"categories_sizes":[],"default_left":[1,1,1,1,1,1,1,1,1,1,1,1,1,1,1,0,0,0,0,0,0,0,0,0,0,0,0,0,0,0,0],"id":22,"left_children":[1,3,5,7,9,11,13,15,17,19,21,23,25,27,29,-1,-1,-1,-1,-1,-1,-1,-1,-1,-1,-1,-1,-1,-1,-1,-1],"loss_changes":[3.95594E5,1.23945E5,1.2583E5,3.875625E4,2.9791E4,3.291E4,3.6268E4,1.18800625E4,1.748175E4,2.142725E4,1.0999E4,2.188125E4,1.38745E4,1.721E4,7.242E3,0E0,0E0,0E0,0E0,0E0,0E0,0E0,0E0,0E0,0E0,0E0,0E0,0E0,0E0,0E0,0E0],"parents":[2147483647,0,0,1,1,2,2,3,3,4,4,5,5,6,6,7,7,8,8,9,9,10,10,11,11,12,12,13,13,14,14],"right_children":[2,4,6,8,10,12,14,16,18,20,22,24,26,28,30,-1,-1,-1,-1,-1,-1,-1,-1,-1,-1,-1,-1,-1,-1,-1,-1],"split_conditions":[-1.7434078E-1,8.999571E-2,1.7962545E-1,-1.0474725E0,-4.7231865E-1,1.3970411E-1,-7.761232E-1,-3.719312E-2,2.7205706E-1,1.4703324E0,1.6008927E0,2.5448166E-2,-6.2329906E-1,-6.2329906E-1,3.487159E-2,4.6405444E-1,6.4311165E-1,7.352258E-1,8.9380974E-1,8.506716E-1,5.0399536E-1,9.398738E-1,1.215485E0,7.152395E-1,9.244744E-1,9.4704914E-1,1.0731624E0,1.0514482E0,1.2312989E0,1.0140371E0,1.1018618E0],"split_indices":[8,20,20,30,7,29,24,20,14,27,7,20,1,1,1,0,0,0,0,0,0,0,0,0,0,0,0,0,0,0,0],"split_type":[0,0,0,0,0,0,0,0,0,0,0,0,0,0,0,0,0,0,0,0,0,0,0,0,0,0,0,0,0,0,0],"sum_hessian":[8.162E4,4.078E4,4.084E4,1.6562E4,2.4218E4,2.0843E4,1.9997E4,4.681E3,1.1881E4,1.1967E4,1.2251E4,1.1361E4,9.482E3,9.748E3,1.0249E4,1.295E3,3.386E3,9.732E3,2.149E3,1.1498E4,4.69E2,1.1866E4,3.85E2,1.453E3,9.908E3,3.656E3,5.826E3,1.655E3,8.093E3,4.288E3,5.961E3],"tree_param":{"num_deleted":"0","num_feature":"37","num_nodes":"31","size_leaf_vector":"0"}},{"base_weights":[1.7701426E1,1.5456286E1,1.9673628E1,1.3419331E1,1.6965298E1,1.7917019E1,2.1079979E1,1.5692562E1,1.25805025E1,1.6420004E1,1.973275E1,1.0760075E1,1.8118658E1,2.2618288E1,1.9885324E1,1.4888382E1,2.0495111E1,1.0063059E1,1.3411097E1,1.5839005E1,1.8136719E1,1.7943243E1,2.0954218E1,8.859034E0,1.6176514E1,1.7593933E1,2.0287252E1,1.9992426E1,2.3261292E1,2.0155184E1,1.765231E1],"categories":[],"categories_nodes":[],"categories_segments":[],"categories_sizes":[],"default_left":[1,1,1,1,1,1,1,1,1,1,1,1,1,1,1,0,0,0,0,0,0,0,0,0,0,0,0,0,0,0,0],"id":23,"left_children":[1,3,5,7,9,11,13,15,17,19,21,23,25,27,29,-1,-1,-1,-1,-1,-1,-1,-1,-1,-1,-1,-1,-1,-1,-1,-1],"loss_changes":[3.61104E5,1.17111E5,1.06958E5,3.0789E4,3.27615E4,2.7693E4,4.3884E4,1.65955E4,2.4695375E4,1.79875E4,7.50175E3,5.334629E3,2.1029E4,1.73275E4,7.8315E3,0E0,0E0,0E0,0E0,0E0,0E0,0E0,0E0,0E0,0E0,0E0,0E0,0E0,0E0,0E0,0E0],"parents":[2147483647,0,0,1,1,2,2,3,3,4,4,5,5,6,6,7,7,8,8,9,9,10,10,11,11,12,12,13,13,14,14],"right_children":[2,4,6,8,10,12,14,16,18,20,22,24,26,28,30,-1,-1,-1,-1,-1,-1,-1,-1,-1,-1,-1,-1,-1,-1,-1,-1],"split_conditions":[1.3431284E-1,-5.844785E-1,1.5823625E-2,-8.3389604E-1,8.916648E-1,-2.6011806E0,-7.736007E-1,6.9219553E-1,-1.3567116E0,2.6045322E-1,-6.2329906E-1,6.332085E-1,4.5453137E-1,-6.2329906E-1,5.528523E-1,7.444191E-1,1.0247556E0,5.0315297E-1,6.705548E-1,7.919503E-1,9.06836E-1,8.9716214E-1,1.0477109E0,4.4295168E-1,8.088257E-1,8.7969667E-1,1.0143627E0,9.9962133E-1,1.1630646E0,1.0077592E0,8.826155E-1],"split_indices":[20,7,8,0,4,19,24,14,7,14,1,1,14,1,24,0,0,0,0,0,0,0,0,0,0,0,0,0,0,0,0],"split_type":[0,0,0,0,0,0,0,0,0,0,0,0,0,0,0,0,0,0,0,0,0,0,0,0,0,0,0,0,0,0,0],"sum_hessian":[8.162E4,3.8173E4,4.3447E4,1.6249E4,2.1924E4,1.9324E4,2.4123E4,4.375E3,1.1874E4,1.8321E4,3.603E3,5.31E2,1.8793E4,1.0537E4,1.3586E4,3.751E3,6.24E2,2.949E3,8.925E3,1.3696E4,4.625E3,1.468E3,2.135E3,3.95E2,1.36E2,1.5139E4,3.654E3,2.079E3,8.458E3,1.2114E4,1.472E3],"tree_param":{"num_deleted":"0","num_feature":"37","num_nodes":"31","size_leaf_vector":"0"}},{"base_weights":[1.6816525E1,1.4754289E1,1.8785978E1,1.3127628E1,1.6564566E1,1.7512941E1,2.0672987E1,1.0086629E1,1.3689902E1,1.6782787E1,9.516706E0,1.700137E1,1.9400434E1,2.0021822E1,2.339135E1,6.377976E0,1.0733658E1,8.108105E-1,1.3789428E1,1.5859713E1,1.8536955E1,8.25705E0,1.4756934E1,1.5495814E1,1.7528477E1,1.9990719E1,1.6377424E1,1.9487473E1,2.2415258E1,2.2519335E1,2.5633018E1],"categories":[],"categories_nodes":[],"categories_segments":[],"categories_sizes":[],"default_left":[1,1,1,1,1,1,1,1,1,1,1,1,1,1,1,0,0,0,0,0,0,0,0,0,0,0,0,0,0,0,0],"id":24,"left_children":[1,3,5,7,9,11,13,15,17,19,21,23,25,27,29,-1,-1,-1,-1,-1,-1,-1,-1,-1,-1,-1,-1,-1,-1,-1,-1],"loss_changes":[3.31226E5,1.17206E5,9.9921E4,3.578325E4,2.88605E4,2.3747E4,2.92905E4,7.8070312E3,2.271125E4,2.934E4,3.6340586E3,1.5303E4,9.148E3,1.69185E4,5.762125E3,0E0,0E0,0E0,0E0,0E0,0E0,0E0,0E0,0E0,0E0,0E0,0E0,0E0,0E0,0E0,0E0],"parents":[2147483647,0,0,1,1,2,2,3,3,4,4,5,5,6,6,7,7,8,8,9,9,10,10,11,11,12,12,13,13,14,14],"right_children":[2,4,6,8,10,12,14,16,18,20,22,24,26,28,30,-1,-1,-1,-1,-1,-1,-1,-1,-1,-1,-1,-1,-1,-1,-1,-1],"split_conditions":[-1.5660337E-1,1.1689773E-1,1.9233763E-1,-1.1815119E0,1.1621552E0,1.0646305E0,1.6728797E0,-1.5050714E0,-2.6796694E0,1.9615132E-1,6.332085E-1,-9.224676E-1,5.1354116E-1,9.5144117E-1,9.9221075E-1,3.188988E-1,5.366829E-1,4.0540528E-2,6.894714E-1,7.929856E-1,9.2684776E-1,4.128525E-1,7.3784673E-1,7.747907E-1,8.7642384E-1,9.99536E-1,8.188712E-1,9.7437364E-1,1.120763E0,1.1259668E0,1.2816509E0],"split_indices":[7,20,20,30,27,7,8,30,35,20,1,1,1,14,1,0,0,0,0,0,0,0,0,0,0,0,0,0,0,0,0],"split_type":[0,0,0,0,0,0,0,0,0,0,0,0,0,0,0,0,0,0,0,0,0,0,0,0,0,0,0,0,0,0,0],"sum_hessian":[8.162E4,3.9875E4,4.1745E4,2.1007E4,1.8868E4,2.4934E4,1.6811E4,3.281E3,1.7726E4,1.83E4,5.68E2,1.9625E4,5.309E3,1.3569E4,3.242E3,4.89E2,2.792E3,1.36E2,1.759E4,1.1997E4,6.303E3,4.6E2,1.08E2,5.097E3,1.4528E4,4.437E3,8.72E2,1.11E4,2.469E3,2.342E3,9E2],"tree_param":{"num_deleted":"0","num_feature":"37","num_nodes":"31","size_leaf_vector":"0"}},{"base_weights":[1.597585E1,1.36426E1,1.758808E1,1.1359017E1,1.4638474E1,1.619969E1,1.9346594E1,1.0641306E1,1.3818317E1,1.418198E1,1.7000038E1,1.5271638E1,1.7574093E1,2.093601E1,1.8445534E1,8.349393E0,1.144261E1,1.2938891E1,1.7048824E1,1.2709567E1,1.4954687E1,1.6761858E1,2.3516323E1,1.1948114E1,1.5772198E1,1.6188412E1,1.8423481E1,2.03914E1,2.3890043E1,1.8116905E1,2.0709896E1],"categories":[],"categories_nodes":[],"categories_segments":[],"categories_sizes":[],"default_left":[1,1,1,1,1,1,1,1,1,1,1,1,1,1,1,0,0,0,0,0,0,0,0,0,0,0,0,0,0,0,0],"id":25,"left_children":[1,3,5,7,9,11,13,15,17,19,21,23,25,27,29,-1,-1,-1,-1,-1,-1,-1,-1,-1,-1,-1,-1,-1,-1,-1,-1],"loss_changes":[3.06798E5,7.5693E4,1.17525E5,1.7740125E4,2.47955E4,3.41415E4,3.01035E4,1.431925E4,6.2739375E3,2.195925E4,5.436875E3,2.6614E4,1.2492E4,1.189225E4,9.7415E3,0E0,0E0,0E0,0E0,0E0,0E0,0E0,0E0,0E0,0E0,0E0,0E0,0E0,0E0,0E0,0E0],"parents":[2147483647,0,0,1,1,2,2,3,3,4,4,5,5,6,6,7,7,8,8,9,9,10,10,11,11,12,12,13,13,14,14],"right_children":[2,4,6,8,10,12,14,16,18,20,22,24,26,28,30,-1,-1,-1,-1,-1,-1,-1,-1,-1,-1,-1,-1,-1,-1,-1,-1],"split_conditions":[-3.718424E-1,5.975777E-2,1.8334386E-1,-3.342491E-1,4.5325932E-1,1.3946608E-1,-1.0995599E0,-3.534171E-2,6.666614E-1,-8.161718E-1,1.9143872E0,2.435163E-2,-6.2329906E-1,3.6273694E-1,1.351213E0,4.1746965E-1,5.721305E-1,6.469446E-1,8.5244125E-1,6.354784E-1,7.4773437E-1,8.380929E-1,1.1758162E0,5.9740573E-1,7.886099E-1,8.094206E-1,9.2117405E-1,1.01957E0,1.1945022E0,9.058453E-1,1.0354948E0],"split_indices":[8,20,20,34,14,29,24,20,14,7,7,20,1,20,1,0,0,0,0,0,0,0,0,0,0,0,0,0,0,0,0],"split_type":[0,0,0,0,0,0,0,0,0,0,0,0,0,0,0,0,0,0,0,0,0,0,0,0,0,0,0,0,0,0,0],"sum_hessian":[8.162E4,3.3356E4,4.8264E4,1.0133E4,2.3223E4,2.6976E4,2.1288E4,7.848E3,2.285E3,1.9467E4,3.756E3,1.611E4,1.0866E4,7.694E3,1.3594E4,2.036E3,5.812E3,1.8E3,4.85E2,6.706E3,1.2761E4,3.627E3,1.29E2,2.112E3,1.3998E4,4.137E3,6.729E3,6.503E3,1.191E3,1.1879E4,1.715E3],"tree_param":{"num_deleted":"0","num_feature":"37","num_nodes":"31","size_leaf_vector":"0"}},{"base_weights":[1.5177219E1,1.6640366E1,1.2835208E1,1.5117804E1,1.7986168E1,1.0655667E1,1.37852335E1,1.4503399E1,1.7292545E1,1.5995636E1,1.8742895E1,8.401688E0,1.1510951E1,1.0239781E1,1.4068546E1,1.2895597E1,1.5429802E1,1.6669394E1,2.0610872E1,1.5464125E1,1.9043835E1,1.7540771E1,2.0081627E1,6.882037E0,1.127908E1,1.0620488E1,1.2944748E1,1.1402205E1,6.4910855E0,1.4768281E1,1.299836E1],"categories":[],"categories_nodes":[],"categories_segments":[],"categories_sizes":[],"default_left":[1,1,1,1,1,1,1,1,1,1,1,1,1,1,1,0,0,0,0,0,0,0,0,0,0,0,0,0,0,0,0],"id":26,"left_children":[1,3,5,7,9,11,13,15,17,19,21,23,25,27,29,-1,-1,-1,-1,-1,-1,-1,-1,-1,-1,-1,-1,-1,-1,-1,-1],"loss_changes":[2.79478E5,1.02659E5,6.48475E4,3.12495E4,3.9857E4,1.8280875E4,2.181075E4,2.718925E4,1.0384375E4,1.16135E4,3.0724E4,1.1404906E4,8.6823125E3,6.9896094E3,1.49625E4,0E0,0E0,0E0,0E0,0E0,0E0,0E0,0E0,0E0,0E0,0E0,0E0,0E0,0E0,0E0,0E0],"parents":[2147483647,0,0,1,1,2,2,3,3,4,4,5,5,6,6,7,7,8,8,9,9,10,10,11,11,12,12,13,13,14,14],"right_children":[2,4,6,8,10,12,14,16,18,20,22,24,26,28,30,-1,-1,-1,-1,-1,-1,-1,-1,-1,-1,-1,-1,-1,-1,-1,-1],"split_conditions":[4.3893576E-1,1.0994622E-1,4.994724E-2,5.295023E-1,-6.2329906E-1,-3.4328494E-2,-1.1696802E0,1.2385357E-1,1.351213E0,1.0406183E0,7.2766256E-1,5.3438807E-1,-5.664617E-1,1.2079289E0,-2.2136027E-1,6.4477986E-1,7.714901E-1,8.334697E-1,1.0305437E0,7.7320623E-1,9.5219177E-1,8.770386E-1,1.0040814E0,3.4410188E-1,5.6395406E-1,5.310244E-1,6.472374E-1,5.7011026E-1,3.245543E-1,7.3841405E-1,6.49918E-1],"split_indices":[24,8,20,14,1,20,30,20,1,14,28,33,7,0,10,0,0,0,0,0,0,0,0,0,0,0,0,0,0,0,0],"split_type":[0,0,0,0,0,0,0,0,0,0,0,0,0,0,0,0,0,0,0,0,0,0,0,0,0,0,0,0,0,0,0],"sum_hessian":[8.162E4,5.0232E4,3.1388E4,2.3574E4,2.6658E4,9.532E3,2.1856E4,1.8387E4,5.187E3,7.349E3,1.9309E4,2.625E3,6.907E3,1.62E3,2.0236E4,6.727E3,1.166E4,4.372E3,8.15E2,6.263E3,1.086E3,1.0181E4,9.128E3,1.72E3,9.05E2,4.266E3,2.641E3,1.235E3,3.85E2,1.2228E4,8.008E3],"tree_param":{"num_deleted":"0","num_feature":"37","num_nodes":"31","size_leaf_vector":"0"}},{"base_weights":[1.4418496E1,1.2527377E1,1.608169E1,1.0904123E1,1.390568E1,1.5359069E1,1.8647364E1,1.3273152E1,1.0267015E1,1.278441E1,1.4924182E1,1.617787E1,1.43374405E1,1.8280151E1,2.2938162E1,1.251284E1,1.7270956E1,7.494344E0,1.0810206E1,1.3009497E1,7.2089486E0,1.4109496E1,1.6206337E1,1.5858868E1,1.8357752E1,1.3241843E1,1.5259171E1,1.7818163E1,2.0926178E1,2.1929989E1,2.8352652E1],"categories":[],"categories_nodes":[],"categories_segments":[],"categories_sizes":[],"default_left":[1,1,1,1,1,1,1,1,1,1,1,1,1,1,1,0,0,0,0,0,0,0,0,0,0,0,0,0,0,0,0],"id":27,"left_children":[1,3,5,7,9,11,13,15,17,19,21,23,25,27,29,-1,-1,-1,-1,-1,-1,-1,-1,-1,-1,-1,-1,-1,-1,-1,-1],"loss_changes":[2.5652E5,8.531E4,8.0222E4,2.6345E4,2.339625E4,2.8115E4,1.460925E4,1.10759375E4,2.0749875E4,1.22525E4,1.107025E4,1.27845E4,1.503125E4,1.03735E4,3.4613438E3,0E0,0E0,0E0,0E0,0E0,0E0,0E0,0E0,0E0,0E0,0E0,0E0,0E0,0E0,0E0,0E0],"parents":[2147483647,0,0,1,1,2,2,3,3,4,4,5,5,6,6,7,7,8,8,9,9,10,10,11,11,12,12,13,13,14,14],"right_children":[2,4,6,8,10,12,14,16,18,20,22,24,26,28,30,-1,-1,-1,-1,-1,-1,-1,-1,-1,-1,-1,-1,-1,-1,-1,-1],"split_conditions":[-2.0446709E-1,1.0025102E-1,2.4102968E-1,-1.1255853E0,-5.3074694E-1,3.0717045E-2,2.6192553E0,6.588841E-1,-1.4507023E0,3.1736639E0,1.9615132E-1,1.7048659E0,-9.4383076E-2,1.351213E0,1.2913792E0,6.25642E-1,8.635478E-1,3.747172E-1,5.4051036E-1,6.5047485E-1,3.6044744E-1,7.054748E-1,8.1031686E-1,7.929434E-1,9.178876E-1,6.6209215E-1,7.629585E-1,8.909082E-1,1.0463089E0,1.0964994E0,1.4176326E0],"split_indices":[7,20,20,0,8,24,7,14,7,31,20,7,25,1,1,0,0,0,0,0,0,0,0,0,0,0,0,0,0,0,0],"split_type":[0,0,0,0,0,0,0,0,0,0,0,0,0,0,0,0,0,0,0,0,0,0,0,0,0,0,0,0,0,0,0],"sum_hessian":[8.162E4,3.8197E4,4.3423E4,1.7544E4,2.0653E4,3.3886E4,9.537E3,3.714E3,1.383E4,9.837E3,1.0816E4,1.8802E4,1.5084E4,8.79E3,7.47E2,3.124E3,5.9E2,2.268E3,1.1562E4,9.454E3,3.83E2,6.621E3,4.195E3,1.6409E4,2.393E3,6.899E3,8.185E3,7.49E3,1.3E3,6.34E2,1.13E2],"tree_param":{"num_deleted":"0","num_feature":"37","num_nodes":"31","size_leaf_vector":"0"}},{"base_weights":[1.3697725E1,1.1679483E1,1.5129895E1,1.0140859E1,1.2815759E1,1.3777546E1,1.6506073E1,7.7429667E0,1.07296505E1,1.2406049E1,1.4847456E1,1.2638452E1,1.4730722E1,1.5881595E1,1.8388264E1,7.0958877E0,1.2156394E1,1.634053E1,1.0551929E1,1.255767E1,7.0022664E0,1.4719131E1,2.6269478E1,7.6491437E0,1.293684E1,1.4218981E1,1.6641228E1,1.3906866E1,1.6348366E1,1.7922733E1,2.2784628E1],"categories":[],"categories_nodes":[],"categories_segments":[],"categories_sizes":[],"default_left":[1,1,1,1,1,1,1,1,0,1,1,1,1,1,1,0,0,0,0,0,0,0,0,0,0,0,0,0,0,0,0],"id":28,"left_children":[1,3,5,7,9,11,13,15,17,19,21,23,25,27,29,-1,-1,-1,-1,-1,-1,-1,-1,-1,-1,-1,-1,-1,-1,-1,-1],"loss_changes":[2.35746E5,5.9108E4,8.8617E4,2.0245E4,1.6036E4,2.59635E4,2.7513E4,8.0300312E3,1.1351875E4,1.3203E4,4.3989375E3,1.6245875E4,1.257675E4,1.61525E4,1.164025E4,0E0,0E0,0E0,0E0,0E0,0E0,0E0,0E0,0E0,0E0,0E0,0E0,0E0,0E0,0E0,0E0],"parents":[2147483647,0,0,1,1,2,2,3,3,4,4,5,5,6,6,7,7,8,8,9,9,10,10,11,11,12,12,13,13,14,14],"right_children":[2,4,6,8,10,12,14,16,18,20,22,24,26,28,30,-1,-1,-1,-1,-1,-1,-1,-1,-1,-1,-1,-1,-1,-1,-1,-1],"split_conditions":[-3.576284E-1,8.90579E-2,1.7164168E-1,-1.3536019E0,4.5325932E-1,-1.8140326E-1,6.846801E-1,1.1118782E0,-1.2714299E0,3.2004747E0,2.766316E0,-4.1856155E-1,7.935838E-1,-6.2329906E-1,2.641932E0,3.5479438E-1,6.0781974E-1,8.1702656E-1,5.275965E-1,6.278835E-1,3.5011333E-1,7.359566E-1,1.3134739E0,3.824572E-1,6.46842E-1,7.1094906E-1,8.320614E-1,6.953433E-1,8.174183E-1,8.961367E-1,1.1392314E0],"split_indices":[8,20,20,7,14,29,14,1,0,31,7,25,14,1,7,0,0,0,0,0,0,0,0,0,0,0,0,0,0,0,0],"split_type":[0,0,0,0,0,0,0,0,0,0,0,0,0,0,0,0,0,0,0,0,0,0,0,0,0,0,0,0,0,0,0],"sum_hessian":[8.162E4,3.3882E4,4.7738E4,1.4397E4,1.9485E4,2.4083E4,2.3655E4,2.841E3,1.1556E4,1.6221E4,3.264E3,1.0978E4,1.3105E4,1.7769E4,5.886E3,2.48E3,3.61E2,3.52E2,1.1204E4,1.5777E4,4.44E2,3.23E3,3.4E1,6.21E2,1.0357E4,1.0343E4,2.762E3,3.403E3,1.4366E4,5.327E3,5.59E2],"tree_param":{"num_deleted":"0","num_feature":"37","num_nodes":"31","size_leaf_vector":"0"}},{"base_weights":[1.30129795E1,1.1349257E1,1.46020975E1,1.00835705E1,1.2829924E1,1.6463001E1,1.3755817E1,8.076222E0,1.0652628E1,1.3020995E1,6.728213E0,1.5787778E1,1.8512234E1,1.1716328E1,1.4168215E1,7.501984E0,1.3907701E1,1.0175347E1,1.2542044E1,1.2324704E1,1.4553223E1,5.5702477E0,1.1468325E1,1.51673975E1,1.721172E1,1.760701E1,2.2359137E1,1.05476055E1,1.3679765E1,1.4683415E1,1.2741538E1],"categories":[],"categories_nodes":[],"categories_segments":[],"categories_sizes":[],"default_left":[1,1,1,1,1,1,1,1,1,1,1,1,1,1,0,0,0,0,0,0,0,0,0,0,0,0,0,0,0,0,0],"id":29,"left_children":[1,3,5,7,9,11,13,15,17,19,21,23,25,27,29,-1,-1,-1,-1,-1,-1,-1,-1,-1,-1,-1,-1,-1,-1,-1,-1],"loss_changes":[2.15629E5,7.46065E4,6.5512E4,2.4479E4,2.1335E4,1.77565E4,2.39725E4,1.58151875E4,1.4979E4,1.8828E4,3.0098945E3,8.412E3,1.084375E4,1.09460625E4,1.73565E4,0E0,0E0,0E0,0E0,0E0,0E0,0E0,0E0,0E0,0E0,0E0,0E0,0E0,0E0,0E0,0E0],"parents":[2147483647,0,0,1,1,2,2,3,3,4,4,5,5,6,6,7,7,8,8,9,9,10,10,11,11,12,12,13,13,14,14],"right_children":[2,4,6,8,10,12,14,16,18,20,22,24,26,28,30,-1,-1,-1,-1,-1,-1,-1,-1,-1,-1,-1,-1,-1,-1,-1,-1],"split_conditions":[-1.5650016E-1,1.1983451E-1,-7.6830655E-1,-2.2449032E-3,1.1621552E0,3.0207688E-1,-1.042135E0,2.5071774E-2,1.6117314E-1,2.0370871E-1,6.332085E-1,1.4057121E0,1.351213E0,1.2803772E-1,1.6454628E0,3.750992E-1,6.9538504E-1,5.0876737E-1,6.271022E-1,6.162352E-1,7.2766113E-1,2.785124E-1,5.7341623E-1,7.5836986E-1,8.60586E-1,8.8035053E-1,1.1179569E0,5.273803E-1,6.839883E-1,7.341708E-1,6.370769E-1],"split_indices":[7,20,24,20,27,20,1,34,14,20,1,8,1,23,0,0,0,0,0,0,0,0,0,0,0,0,0,0,0,0,0],"split_type":[0,0,0,0,0,0,0,0,0,0,0,0,0,0,0,0,0,0,0,0,0,0,0,0,0,0,0,0,0,0,0],"sum_hessian":[8.162E4,3.9878E4,4.1742E4,2.1504E4,1.8374E4,1.3043E4,2.8699E4,4.753E3,1.6751E4,1.7815E4,5.59E2,9.817E3,3.226E3,4.832E3,2.3867E4,4.329E3,4.24E2,1.3378E4,3.373E3,1.2255E4,5.56E3,4.51E2,1.08E2,6.846E3,2.971E3,2.616E3,6.1E2,3.033E3,1.799E3,1.7528E4,6.339E3],"tree_param":{"num_deleted":"0","num_feature":"37","num_nodes":"31","size_leaf_vector":"0"}},{"base_weights":[1.2362461E1,1.3595113E1,1.0389407E1,1.2306022E1,1.4734569E1,8.200157E0,1.1080604E1,1.1899397E1,1.4892296E1,1.2996909E1,1.5395214E1,7.312186E0,1.0229882E1,7.3808775E0,1.1296477E1,1.0641884E1,1.2621763E1,1.4724419E1,2.5837507E1,1.262786E1,1.6441252E1,1.4380471E1,1.6527199E1,7.9278526E0,2.2675111E0,6.036935E0,1.133495E1,8.690943E0,3.6168E0,1.1906227E1,1.0345597E1],"categories":[],"categories_nodes":[],"categories_segments":[],"categories_sizes":[],"default_left":[1,1,1,1,1,1,1,1,1,1,1,1,1,1,1,0,0,0,0,0,0,0,0,0,0,0,0,0,0,0,0],"id":30,"left_children":[1,3,5,7,9,11,13,15,17,19,21,23,25,27,29,-1,-1,-1,-1,-1,-1,-1,-1,-1,-1,-1,-1,-1,-1,-1,-1],"loss_changes":[1.98368E5,7.3604E4,4.74075E4,2.461525E4,3.0404E4,1.3507594E4,1.896825E4,1.837575E4,5.4975E3,9.135125E3,2.19435E4,1.627525E4,1.0546906E4,6.467867E3,1.294375E4,0E0,0E0,0E0,0E0,0E0,0E0,0E0,0E0,0E0,0E0,0E0,0E0,0E0,0E0,0E0,0E0],"parents":[2147483647,0,0,1,1,2,2,3,3,4,4,5,5,6,6,7,7,8,8,9,9,10,10,11,11,12,12,13,13,14,14],"right_children":[2,4,6,8,10,12,14,16,18,20,22,24,26,28,30,-1,-1,-1,-1,-1,-1,-1,-1,-1,-1,-1,-1,-1,-1,-1,-1],"split_conditions":[4.3893576E-1,1.0994622E-1,3.2696478E-2,9.0272963E-1,-6.2329906E-1,5.781182E-1,-1.2348485E0,1.2385357E-1,2.985755E0,1.4573064E0,7.291519E-1,9.438389E-1,-9.224676E-1,1.2079289E0,-2.217747E-1,5.320942E-1,6.310882E-1,7.3622096E-1,1.2918754E0,6.31393E-1,8.220626E-1,7.190236E-1,8.263599E-1,3.9639264E-1,1.1337556E-1,3.0184674E-1,5.6674755E-1,4.3454716E-1,1.8084E-1,5.9531134E-1,5.1727986E-1],"split_indices":[24,8,20,14,1,33,30,20,7,14,28,26,1,0,10,0,0,0,0,0,0,0,0,0,0,0,0,0,0,0,0],"split_type":[0,0,0,0,0,0,0,0,0,0,0,0,0,0,0,0,0,0,0,0,0,0,0,0,0,0,0,0,0,0,0],"sum_hessian":[8.162E4,5.0232E4,3.1388E4,2.3574E4,2.6658E4,7.535E3,2.3853E4,2.0376E4,3.198E3,7.349E3,1.9309E4,5.245E3,2.29E3,1.317E3,2.2536E4,7.44E3,1.2936E4,3.152E3,4.6E1,6.642E3,7.07E2,1.0189E4,9.12E3,4.674E3,5.71E2,4.79E2,1.811E3,9.76E2,3.41E2,1.3724E4,8.812E3],"tree_param":{"num_deleted":"0","num_feature":"37","num_nodes":"31","size_leaf_vector":"0"}},{"base_weights":[1.17444515E1,9.940956E0,1.2990644E1,8.193168E0,1.0703191E1,1.1814358E1,1.41983E1,1.0504578E1,7.6428933E0,8.014231E0,1.0965657E1,1.1285902E1,1.3427653E1,1.36687155E1,1.601429E1,9.579709E0,1.36951475E1,7.030445E0,9.84885E0,1.0779817E1,7.015682E0,1.0605615E1,1.2773315E1,8.787805E0,1.164037E1,1.577764E1,1.2784003E1,1.188719E1,1.408334E1,1.5168056E1,1.8280848E1],"categories":[],"categories_nodes":[],"categories_segments":[],"categories_sizes":[],"default_left":[1,1,1,1,1,1,1,1,1,1,1,1,0,1,1,0,0,0,0,0,0,0,0,0,0,0,0,0,0,0,0],"id":31,"left_children":[1,3,5,7,9,11,13,15,17,19,21,23,25,27,29,-1,-1,-1,-1,-1,-1,-1,-1,-1,-1,-1,-1,-1,-1,-1,-1],"loss_changes":[1.83314E5,4.43515E4,6.83955E4,1.280925E4,1.63025E4,2.06985E4,2.26795E4,5.611172E3,1.0994375E4,5.6380625E3,1.363375E4,1.621575E4,8.9175E3,1.345425E4,1.00225E4,0E0,0E0,0E0,0E0,0E0,0E0,0E0,0E0,0E0,0E0,0E0,0E0,0E0,0E0,0E0,0E0],"parents":[2147483647,0,0,1,1,2,2,3,3,4,4,5,5,6,6,7,7,8,8,9,9,10,10,11,11,12,12,13,13,14,14],"right_children":[2,4,6,8,10,12,14,16,18,20,22,24,26,28,30,-1,-1,-1,-1,-1,-1,-1,-1,-1,-1,-1,-1,-1,-1,-1,-1],"split_conditions":[-3.718424E-1,5.975777E-2,1.7164168E-1,-1.2714299E0,-1.1221735E0,6.8556494E-1,7.6670957E-1,9.32377E-1,-3.3096838E-1,-8.3389604E-1,4.539996E-1,1.7630832E-2,-6.8805134E-1,-6.2329906E-1,9.9221075E-1,4.7898546E-1,6.847574E-1,3.5152227E-1,4.9244252E-1,5.3899086E-1,3.5078412E-1,5.3028077E-1,6.386658E-1,4.3939024E-1,5.8201855E-1,7.88882E-1,6.3920015E-1,5.943595E-1,7.04167E-1,7.5840276E-1,9.140424E-1],"split_indices":[8,20,20,0,30,4,14,1,34,0,14,20,0,1,1,0,0,0,0,0,0,0,0,0,0,0,0,0,0,0,0],"split_type":[0,0,0,0,0,0,0,0,0,0,0,0,0,0,0,0,0,0,0,0,0,0,0,0,0,0,0,0,0,0,0],"sum_hessian":[8.162E4,3.3356E4,4.8264E4,1.0133E4,2.3223E4,2.4455E4,2.3809E4,1.945E3,8.188E3,2.068E3,2.1155E4,1.8427E4,6.028E3,1.844E4,5.369E3,1.511E3,4.34E2,6.412E3,1.776E3,5.46E2,1.522E3,1.7647E4,3.508E3,2.293E3,1.6134E4,1.291E3,4.737E3,3.487E3,1.4953E4,3.915E3,1.454E3],"tree_param":{"num_deleted":"0","num_feature":"37","num_nodes":"31","size_leaf_vector":"0"}},{"base_weights":[1.1157346E1,9.788109E0,1.2665484E1,8.619856E0,1.1044537E1,1.2114906E1,1.4908096E1,6.7340693E0,9.1465435E0,1.1200646E1,5.5559263E0,1.0365913E1,1.2483714E1,1.4393424E1,1.7859295E1,9.367909E0,5.908055E0,-3.003939E0,9.232857E0,1.0540216E1,1.2404658E1,7.2744036E0,3.0606015E0,6.36475E0,1.0793168E1,1.3091254E1,1.1263772E1,1.3615048E1,1.6019512E1,2.0709665E0,1.821398E1],"categories":[],"categories_nodes":[],"categories_segments":[],"categories_sizes":[],"default_left":[1,1,1,1,1,1,1,1,1,1,1,1,0,1,1,0,0,0,0,0,0,0,0,0,0,0,0,0,0,0,0],"id":32,"left_children":[1,3,5,7,9,11,13,15,17,19,21,23,25,27,29,-1,-1,-1,-1,-1,-1,-1,-1,-1,-1,-1,-1,-1,-1,-1,-1],"loss_changes":[1.68423E5,6.270575E4,4.77725E4,2.196325E4,1.759775E4,1.99875E4,1.1364E4,1.0485375E4,1.82035E4,1.580475E4,2.4305625E3,9.2259375E3,1.893825E4,8.03425E3,6.3013438E3,0E0,0E0,0E0,0E0,0E0,0E0,0E0,0E0,0E0,0E0,0E0,0E0,0E0,0E0,0E0,0E0],"parents":[2147483647,0,0,1,1,2,2,3,3,4,4,5,5,6,6,7,7,8,8,9,9,10,10,11,11,12,12,13,13,14,14],"right_children":[2,4,6,8,10,12,14,16,18,20,22,24,26,28,30,-1,-1,-1,-1,-1,-1,-1,-1,-1,-1,-1,-1,-1,-1,-1,-1],"split_conditions":[-7.219969E-2,1.177682E-1,2.5242215E-1,-1.2350047E0,1.1621552E0,-1.042135E0,1.351213E0,-6.8805134E-1,-2.6826906E0,1.9600847E-1,1.2079289E0,-6.9120353E-1,1.0620842E0,1.6292076E0,-1.9277308E0,4.6839547E-1,2.9540274E-1,-1.5019695E-1,4.6164283E-1,5.2701086E-1,6.2023294E-1,3.6372018E-1,1.5303008E-1,3.182375E-1,5.396584E-1,6.545627E-1,5.631886E-1,6.8075246E-1,8.009756E-1,1.03548326E-1,9.10699E-1],"split_indices":[7,20,20,7,27,1,1,0,35,20,0,28,0,8,0,0,0,0,0,0,0,0,0,0,0,0,0,0,0,0,0],"split_type":[0,0,0,0,0,0,0,0,0,0,0,0,0,0,0,0,0,0,0,0,0,0,0,0,0,0,0,0,0,0,0],"sum_hessian":[8.162E4,4.2784E4,3.8836E4,2.2174E4,2.061E4,3.1186E4,7.65E3,4.844E3,1.733E4,2.0039E4,5.71E2,5.436E3,2.575E4,6.519E3,1.131E3,1.154E3,3.69E3,1.22E2,1.7208E4,1.2947E4,7.092E3,3.37E2,2.34E2,5.26E2,4.91E3,1.7183E4,8.567E3,4.415E3,2.104E3,2.5E1,1.106E3],"tree_param":{"num_deleted":"0","num_feature":"37","num_nodes":"31","size_leaf_vector":"0"}},{"base_weights":[1.0599567E1,8.947337E0,1.17412405E1,7.7529945E0,9.884069E0,1.3042515E1,1.0787703E1,4.8571277E0,8.10547E0,9.5416155E0,1.1580299E1,1.2568077E1,1.5013402E1,1.1424199E1,9.378993E0,5.074424E-1,5.5422215E0,1.3053985E1,7.9434223E0,8.430231E0,1.0112444E1,7.190367E0,1.1834272E1,1.440359E1,1.2217331E1,1.37754545E1,1.663155E1,1.0529083E1,1.2069959E1,2.7657611E0,9.637678E0],"categories":[],"categories_nodes":[],"categories_segments":[],"categories_sizes":[],"default_left":[1,1,1,1,1,1,1,1,0,1,1,0,1,1,1,0,0,0,0,0,0,0,0,0,0,0,0,0,0,0,0],"id":33,"left_children":[1,3,5,7,9,11,13,15,17,19,21,23,25,27,29,-1,-1,-1,-1,-1,-1,-1,-1,-1,-1,-1,-1,-1,-1,-1,-1],"loss_changes":[1.53857E5,3.724225E4,5.9747E4,1.49315E4,1.0746875E4,1.889225E4,2.487325E4,4.747215E3,1.038025E4,9.78425E3,3.4101875E3,1.04165E4,7.6914375E3,1.09625E4,1.481575E4,0E0,0E0,0E0,0E0,0E0,0E0,0E0,0E0,0E0,0E0,0E0,0E0,0E0,0E0,0E0,0E0],"parents":[2147483647,0,0,1,1,2,2,3,3,4,4,5,5,6,6,7,7,8,8,9,9,10,10,11,11,12,12,13,13,14,14],"right_children":[2,4,6,8,10,12,14,16,18,20,22,24,26,28,30,-1,-1,-1,-1,-1,-1,-1,-1,-1,-1,-1,-1,-1,-1,-1,-1],"split_conditions":[-3.718424E-1,9.1764346E-2,-3.51825E-1,-1.322645E0,4.5325932E-1,3.0002564E-1,-1.0360518E-1,-1.8956289E0,-1.2714299E0,-7.933737E-1,-2.2535682E0,-1.1255853E0,9.9221075E-1,1.3167197E-1,-8.7982154E-1,2.5372121E-2,2.7711108E-1,6.5269923E-1,3.971711E-1,4.2151156E-1,5.056222E-1,3.5951838E-1,5.917136E-1,7.201795E-1,6.1086655E-1,6.8877274E-1,8.315775E-1,5.2645415E-1,6.034979E-1,1.3828807E-1,4.818839E-1],"split_indices":[8,20,24,30,14,20,10,2,0,7,33,0,1,20,30,0,0,0,0,0,0,0,0,0,0,0,0,0,0,0,0],"split_type":[0,0,0,0,0,0,0,0,0,0,0,0,0,0,0,0,0,0,0,0,0,0,0,0,0,0,0,0,0,0,0],"sum_hessian":[8.162E4,3.3356E4,4.8264E4,1.4666E4,1.869E4,2.0405E4,2.7859E4,1.593E3,1.3073E4,1.5556E4,3.134E3,1.6452E4,3.953E3,1.9184E4,8.675E3,2.17E2,1.376E3,4.12E2,1.2661E4,5.284E3,1.0272E4,1.73E2,2.961E3,2.633E3,1.3819E4,2.245E3,1.708E3,8.047E3,1.1137E4,3.27E2,8.348E3],"tree_param":{"num_deleted":"0","num_feature":"37","num_nodes":"31","size_leaf_vector":"0"}},{"base_weights":[1.0069685E1,8.938132E0,1.1604034E1,7.8126645E0,1.00552E1,1.2953681E1,1.0846152E1,4.6395297E0,8.080774E0,8.789891E0,1.0626829E1,1.269141E1,1.7447414E1,8.807407E0,1.1235654E1,9.391164E0,3.9827733E0,-3.0053647E0,8.152778E0,4.7755437E0,9.035853E0,1.115048E1,9.097888E0,1.1072167E1,1.31507225E1,1.897232E1,1.48719015E1,7.5497293E0,1.0449804E1,1.1788184E1,9.743787E0],"categories":[],"categories_nodes":[],"categories_segments":[],"categories_sizes":[],"default_left":[1,1,1,1,1,1,1,1,1,1,1,1,0,1,0,0,0,0,0,0,0,0,0,0,0,0,0,0,0,0,0],"id":34,"left_children":[1,3,5,7,9,11,13,15,17,19,21,23,25,27,29,-1,-1,-1,-1,-1,-1,-1,-1,-1,-1,-1,-1,-1,-1,-1,-1],"loss_changes":[1.416075E5,5.8987E4,3.52925E4,1.9876E4,1.695825E4,1.4454125E4,1.7522E4,5.6609336E3,1.7252125E4,7.206125E3,1.2896E4,8.6075E3,2.4041875E3,7.2829062E3,1.523925E4,0E0,0E0,0E0,0E0,0E0,0E0,0E0,0E0,0E0,0E0,0E0,0E0,0E0,0E0,0E0,0E0],"parents":[2147483647,0,0,1,1,2,2,3,3,4,4,5,5,6,6,7,7,8,8,9,9,10,10,11,11,12,12,13,13,14,14],"right_children":[2,4,6,8,10,12,14,16,18,20,22,24,26,28,30,-1,-1,-1,-1,-1,-1,-1,-1,-1,-1,-1,-1,-1,-1,-1,-1],"split_conditions":[5.4878995E-2,1.1637689E-1,-7.421378E-1,-1.5867441E0,-6.8264985E-1,2.9276934E0,-1.042135E0,-7.627534E-1,-2.6796694E0,-1.2458596E0,2.4869438E-2,-6.2329906E-1,4.787057E-1,-1.4465627E-1,1.6454628E0,4.695582E-1,1.9913867E-1,-1.5026824E-1,4.0763888E-1,2.3877719E-1,4.517927E-1,5.57524E-1,4.548944E-1,5.5360836E-1,6.5753615E-1,9.48616E-1,7.4359506E-1,3.7748647E-1,5.224902E-1,5.8940923E-1,4.8718935E-1],"split_indices":[7,20,24,7,8,7,1,32,35,30,10,1,0,23,0,0,0,0,0,0,0,0,0,0,0,0,0,0,0,0,0],"split_type":[0,0,0,0,0,0,0,0,0,0,0,0,0,0,0,0,0,0,0,0,0,0,0,0,0,0,0,0,0,0,0],"sum_hessian":[8.162E4,4.698E4,3.464E4,2.3406E4,2.3574E4,1.2451E4,2.2189E4,1.825E3,2.1581E4,7.341E3,1.6233E4,1.1768E4,6.83E2,3.563E3,1.8626E4,2.2E2,1.605E3,1.39E2,2.1442E4,4.25E2,6.916E3,1.2087E4,4.146E3,2.606E3,9.162E3,4.25E2,2.58E2,2.021E3,1.542E3,1.3587E4,5.039E3],"tree_param":{"num_deleted":"0","num_feature":"37","num_nodes":"31","size_leaf_vector":"0"}},{"base_weights":[9.566292E0,1.056729E1,7.9640517E0,9.948102E0,1.2257157E1,5.722113E0,8.4392805E0,9.553185E0,1.1792842E1,1.043146E1,1.2831071E1,4.7198296E0,7.906865E0,7.427859E0,8.989114E0,8.098689E0,1.0014596E1,1.129653E1,1.4596541E1,4.6325445E0,1.0687148E1,1.3478843E1,1.0627141E1,5.3847337E0,-3.8038034E-2,3.622377E0,9.085351E0,6.6412296E0,8.942943E0,8.310735E0,1.0006151E1],"categories":[],"categories_nodes":[],"categories_segments":[],"categories_sizes":[],"default_left":[1,1,1,1,1,1,1,1,1,1,0,1,1,1,1,0,0,0,0,0,0,0,0,0,0,0,0,0,0,0,0],"id":35,"left_children":[1,3,5,7,9,11,13,15,17,19,21,23,25,27,29,-1,-1,-1,-1,-1,-1,-1,-1,-1,-1,-1,-1,-1,-1,-1,-1],"loss_changes":[1.308235E5,5.2439E4,3.3394625E4,2.66735E4,1.3975625E4,1.1990922E4,1.4335E4,2.0247E4,8.8506875E3,4.7337188E3,1.447725E4,1.1920367E4,8.682023E3,1.0817094E4,1.14885E4,0E0,0E0,0E0,0E0,0E0,0E0,0E0,0E0,0E0,0E0,0E0,0E0,0E0,0E0,0E0,0E0],"parents":[2147483647,0,0,1,1,2,2,3,3,4,4,5,5,6,6,7,7,8,8,9,9,10,10,11,11,12,12,13,13,14,14],"right_children":[2,4,6,8,10,12,14,16,18,20,22,24,26,28,30,-1,-1,-1,-1,-1,-1,-1,-1,-1,-1,-1,-1,-1,-1,-1,-1],"split_conditions":[4.3893576E-1,8.2174975E-1,1.19114425E-2,7.675575E-1,-6.2329906E-1,5.7814693E-1,-8.208896E-1,-6.1955905E-1,1.351213E0,-5.6233954E-1,1.9371521E0,9.3337774E-1,-9.224676E-1,7.528759E-1,1.0456121E-1,4.0493447E-1,5.007298E-1,5.648265E-1,7.298271E-1,2.3162723E-1,5.343574E-1,6.7394215E-1,5.3135705E-1,2.6923668E-1,-1.9019017E-3,1.8111885E-1,4.5426756E-1,3.320615E-1,4.4714713E-1,4.1553673E-1,5.0030756E-1],"split_indices":[24,8,20,14,1,33,7,8,1,25,0,26,1,1,25,0,0,0,0,0,0,0,0,0,0,0,0,0,0,0,0],"split_type":[0,0,0,0,0,0,0,0,0,0,0,0,0,0,0,0,0,0,0,0,0,0,0,0,0,0,0,0,0,0,0],"sum_hessian":[8.162E4,5.0232E4,3.1388E4,3.6767E4,1.3465E4,5.492E3,2.5896E4,3.0289E4,6.478E3,3.225E3,1.024E4,3.767E3,1.725E3,9.125E3,1.6771E4,7.299E3,2.299E4,5.508E3,9.7E2,1.37E2,3.088E3,7.91E3,2.33E3,3.305E3,4.62E2,3.73E2,1.352E3,6.01E3,3.115E3,1.0066E4,6.705E3],"tree_param":{"num_deleted":"0","num_feature":"37","num_nodes":"31","size_leaf_vector":"0"}},{"base_weights":[9.08806E0,7.968432E0,1.0408216E1,6.3687887E0,8.6281595E0,9.640862E0,1.1554288E1,8.277659E0,5.5838795E0,8.278247E0,1.0575125E1,9.779197E0,4.447246E0,1.3538342E1,1.1034216E1,7.6315618E0,1.1999355E1,7.7446324E-1,6.1178403E0,7.893008E0,9.52813E0,9.21761E0,1.1546209E1,8.082412E0,1.0101297E1,3.6350148E0,1.1227083E1,3.3678217E0,1.3733659E1,1.0839704E1,1.5296666E1],"categories":[],"categories_nodes":[],"categories_segments":[],"categories_sizes":[],"default_left":[1,1,1,1,1,1,0,1,0,1,1,1,1,0,1,0,0,0,0,0,0,0,0,0,0,0,0,0,0,0,0],"id":36,"left_children":[1,3,5,7,9,11,13,15,17,19,21,23,25,27,29,-1,-1,-1,-1,-1,-1,-1,-1,-1,-1,-1,-1,-1,-1,-1,-1],"loss_changes":[1.2056E5,4.655775E4,3.282675E4,1.9283219E4,2.121525E4,1.607775E4,1.5343875E4,8.9424375E3,2.3479969E4,1.2689375E4,6.1685E3,1.186375E4,3.1751602E3,6.139625E3,9.702E3,0E0,0E0,0E0,0E0,0E0,0E0,0E0,0E0,0E0,0E0,0E0,0E0,0E0,0E0,0E0,0E0],"parents":[2147483647,0,0,1,1,2,2,3,3,4,4,5,5,6,6,7,7,8,8,9,9,10,10,11,11,12,12,13,13,14,14],"right_children":[2,4,6,8,10,12,14,16,18,20,22,24,26,28,30,-1,-1,-1,-1,-1,-1,-1,-1,-1,-1,-1,-1,-1,-1,-1,-1],"split_conditions":[1.5179807E-1,-8.142868E-1,4.8157877E-1,-6.8805134E-1,8.678193E-1,2.3639026E0,-1.1255853E0,6.9219553E-1,-5.4220676E-1,2.6072523E-1,-6.2329906E-1,-7.9882926E-1,1.1118782E0,-1.8548084E0,1.351213E0,3.815781E-1,5.999678E-1,3.8723163E-2,3.0589202E-1,3.9465043E-1,4.7640648E-1,4.6088052E-1,5.773105E-1,4.041206E-1,5.050649E-1,1.8175074E-1,5.6135416E-1,1.683911E-1,6.8668294E-1,5.419852E-1,7.6483333E-1],"split_indices":[20,7,7,0,4,31,0,14,0,14,1,8,1,0,1,0,0,0,0,0,0,0,0,0,0,0,0,0,0,0,0],"split_type":[0,0,0,0,0,0,0,0,0,0,0,0,0,0,0,0,0,0,0,0,0,0,0,0,0,0,0,0,0,0,0],"sum_hessian":[8.162E4,4.4168E4,3.7452E4,1.29E4,3.1268E4,2.2438E4,1.5014E4,3.756E3,9.144E3,2.6509E4,4.759E3,2.1855E4,5.83E2,3.113E3,1.1901E4,3.203E3,5.53E2,9.14E2,8.23E3,2.0269E4,6.24E3,1.989E3,2.77E3,3.491E3,1.8364E4,5.22E2,6.1E1,5.9E1,3.054E3,1.1385E4,5.16E2],"tree_param":{"num_deleted":"0","num_feature":"37","num_nodes":"31","size_leaf_vector":"0"}},{"base_weights":[8.633744E0,7.2783275E0,9.625271E0,5.3126497E0,7.76215E0,8.818094E0,1.0638156E1,2.7245386E0,5.8309774E0,7.341682E0,9.617718E0,8.358301E0,9.912009E0,1.0201822E1,1.248586E1,-3.6642916E0,3.2629604E0,7.857027E0,5.268242E0,6.924578E0,8.954585E0,8.8151655E0,1.2067492E1,5.854886E0,8.572397E0,8.70486E0,1.0716375E1,8.523775E0,1.0546779E1,1.1596967E1,1.4611734E1],"categories":[],"categories_nodes":[],"categories_segments":[],"categories_sizes":[],"default_left":[1,1,1,1,1,1,1,1,1,1,1,1,1,1,1,0,0,0,0,0,0,0,0,0,0,0,0,0,0,0,0],"id":37,"left_children":[1,3,5,7,9,11,13,15,17,19,21,23,25,27,29,-1,-1,-1,-1,-1,-1,-1,-1,-1,-1,-1,-1,-1,-1,-1,-1],"loss_changes":[1.096225E5,3.275725E4,3.8443E4,9.126359E3,2.1519875E4,1.3113625E4,1.672175E4,3.9299873E3,6.4311406E3,1.5118625E4,9.938281E3,9.854125E3,7.4406875E3,9.6995E3,7.3665625E3,0E0,0E0,0E0,0E0,0E0,0E0,0E0,0E0,0E0,0E0,0E0,0E0,0E0,0E0,0E0,0E0],"parents":[2147483647,0,0,1,1,2,2,3,3,4,4,5,5,6,6,7,7,8,8,9,9,10,10,11,11,12,12,13,13,14,14],"right_children":[2,4,6,8,10,12,14,16,18,20,22,24,26,28,30,-1,-1,-1,-1,-1,-1,-1,-1,-1,-1,-1,-1,-1,-1,-1,-1],"split_conditions":[-3.0523968E-1,-1.0525372E0,1.7937574E-1,-1.7339802E0,1.959846E-1,6.000662E-1,9.51639E-1,-2.5176445E-1,-8.3389604E-1,1.9077E-1,1.351213E0,6.998717E-3,-6.2329906E-1,-6.2329906E-1,9.9221075E-1,-1.8321459E-1,1.6314803E-1,3.9285135E-1,2.634121E-1,3.4622893E-1,4.4772926E-1,4.407583E-1,6.033746E-1,2.927443E-1,4.2861986E-1,4.3524298E-1,5.3581876E-1,4.2618877E-1,5.273389E-1,5.7984835E-1,7.305867E-1],"split_indices":[7,30,20,7,20,4,14,31,0,14,1,20,1,1,1,0,0,0,0,0,0,0,0,0,0,0,0,0,0,0,0],"split_type":[0,0,0,0,0,0,0,0,0,0,0,0,0,0,0,0,0,0,0,0,0,0,0,0,0,0,0,0,0,0,0],"sum_hessian":[8.162E4,3.4486E4,4.7134E4,6.814E3,2.7672E4,2.6236E4,2.0898E4,1.138E3,5.676E3,2.2564E4,5.108E3,1.8478E4,7.758E3,1.6911E4,3.987E3,8.8E1,1.05E3,1.231E3,4.445E3,1.7932E4,4.632E3,3.851E3,1.257E3,1.458E3,1.702E4,3.107E3,4.651E3,2.888E3,1.4023E4,2.816E3,1.171E3],"tree_param":{"num_deleted":"0","num_feature":"37","num_nodes":"31","size_leaf_vector":"0"}},{"base_weights":[8.202135E0,7.0593014E0,9.288614E0,5.029167E0,7.454532E0,1.04242735E1,8.572302E0,4.0453706E0,6.2891636E0,7.0593514E0,8.758094E0,1.0184982E1,1.3502059E1,9.100915E0,7.151135E0,1.6452585E0,5.01848E0,3.485005E0,7.3203125E0,5.432931E0,7.380494E0,1.0333076E1,8.057089E0,8.783833E0,1.063063E1,1.5310028E1,1.2088469E1,5.1436214E0,9.227518E0,-8.206097E-1,7.3712883E0],"categories":[],"categories_nodes":[],"categories_segments":[],"categories_sizes":[],"default_left":[1,1,1,1,1,1,1,0,1,1,0,1,0,1,1,0,0,0,0,0,0,0,0,0,0,0,0,0,0,0,0],"id":38,"left_children":[1,3,5,7,9,11,13,15,17,19,21,23,25,27,29,-1,-1,-1,-1,-1,-1,-1,-1,-1,-1,-1,-1,-1,-1,-1,-1],"loss_changes":[1.0128E5,3.188325E4,3.3946E4,8.0144844E3,1.7091375E4,1.1777375E4,1.92135E4,8.504902E3,8.192141E3,1.3308625E4,8.4644375E3,9.282375E3,2.7897812E3,9.321875E3,1.2224375E4,0E0,0E0,0E0,0E0,0E0,0E0,0E0,0E0,0E0,0E0,0E0,0E0,0E0,0E0,0E0,0E0],"parents":[2147483647,0,0,1,1,2,2,3,3,4,4,5,5,6,6,7,7,8,8,9,9,10,10,11,11,12,12,13,13,14,14],"right_children":[2,4,6,8,10,12,14,16,18,20,22,24,26,28,30,-1,-1,-1,-1,-1,-1,-1,-1,-1,-1,-1,-1,-1,-1,-1,-1],"split_conditions":[-2.0146829E-1,2.014992E-2,-5.377223E-1,2.6488912E-1,1.9939587E-1,2.5313141E0,2.1100206E-2,-5.4220676E-1,-9.224676E-1,-1.1282828E0,-6.8805134E-1,-6.2329906E-1,-1.1255853E0,-1.819973E0,-8.7982154E-1,8.2262926E-2,2.50924E-1,1.7425025E-1,3.6601564E-1,2.7164656E-1,3.6902472E-1,5.166538E-1,4.0285444E-1,4.3919164E-1,5.315315E-1,7.6550144E-1,6.0442346E-1,2.5718108E-1,4.6137592E-1,-4.1030485E-2,3.6856443E-1],"split_indices":[8,20,24,33,14,7,10,0,1,7,0,1,0,1,30,0,0,0,0,0,0,0,0,0,0,0,0,0,0,0,0],"split_type":[0,0,0,0,0,0,0,0,0,0,0,0,0,0,0,0,0,0,0,0,0,0,0,0,0,0,0,0,0,0,0],"sum_hessian":[8.162E4,3.9782E4,4.1838E4,6.485E3,3.3297E4,1.6177E4,2.5661E4,3.644E3,2.841E3,2.5556E4,7.741E3,1.5014E4,1.163E3,1.87E4,6.961E3,1.052E3,2.592E3,7.65E2,2.076E3,4.217E3,2.1339E4,2.38E3,5.361E3,3.628E3,1.1386E4,5.06E2,6.57E2,5.81E2,1.8119E4,1.87E2,6.774E3],"tree_param":{"num_deleted":"0","num_feature":"37","num_nodes":"31","size_leaf_vector":"0"}},{"base_weights":[7.7920995E0,8.540939E0,6.266604E0,8.033069E0,1.006233E1,3.2718053E0,6.5650797E0,7.7032113E0,9.671261E0,8.494126E0,1.0560851E1,2.0175366E0,5.6729064E0,4.694112E0,6.828237E0,6.655541E0,8.192747E0,9.241468E0,1.2055228E1,7.9361925E0,1.0944815E1,1.1154624E1,8.552574E0,2.994604E0,-2.9047704E0,2.0579617E0,6.8364997E0,5.337235E0,2.4158535E0,5.9854245E0,7.413645E0],"categories":[],"categories_nodes":[],"categories_segments":[],"categories_sizes":[],"default_left":[1,1,1,1,1,1,1,1,1,1,0,1,1,1,1,0,0,0,0,0,0,0,0,0,0,0,0,0,0,0,0],"id":39,"left_children":[1,3,5,7,9,11,13,15,17,19,21,23,25,27,29,-1,-1,-1,-1,-1,-1,-1,-1,-1,-1,-1,-1,-1,-1,-1,-1],"loss_changes":[9.3186E4,4.2218E4,2.4004125E4,2.2107E4,1.0618375E4,7.3308984E3,1.200175E4,1.747175E4,6.93375E3,4.437625E3,1.2293E4,7.718207E3,3.502418E3,4.407617E3,1.05264375E4,0E0,0E0,0E0,0E0,0E0,0E0,0E0,0E0,0E0,0E0,0E0,0E0,0E0,0E0,0E0,0E0],"parents":[2147483647,0,0,1,1,2,2,3,3,4,4,5,5,6,6,7,7,8,8,9,9,10,10,11,11,12,12,13,13,14,14],"right_children":[2,4,6,8,10,12,14,16,18,20,22,24,26,28,30,-1,-1,-1,-1,-1,-1,-1,-1,-1,-1,-1,-1,-1,-1,-1,-1],"split_conditions":[5.567047E-1,8.2174975E-1,-3.4517825E-2,7.675575E-1,-6.2329906E-1,5.3438807E-1,-1.2814698E0,1.19238205E-1,1.351213E0,1.6743243E0,1.9371521E0,1.0213213E0,-8.028002E-1,1.1673529E0,-8.208896E-1,3.3277705E-1,4.0963736E-1,4.6207342E-1,6.0276145E-1,3.9680964E-1,5.4724073E-1,5.577312E-1,4.2762873E-1,1.497302E-1,-1.4523852E-1,1.0289808E-1,3.4182498E-1,2.6686177E-1,1.2079268E-1,2.9927123E-1,3.7068224E-1],"split_indices":[24,8,20,14,1,33,1,20,1,7,0,3,1,24,7,0,0,0,0,0,0,0,0,0,0,0,0,0,0,0,0],"split_type":[0,0,0,0,0,0,0,0,0,0,0,0,0,0,0,0,0,0,0,0,0,0,0,0,0,0,0,0,0,0,0],"sum_hessian":[8.162E4,5.4743E4,2.6877E4,4.1047E4,1.3696E4,2.437E3,2.444E4,3.4172E4,6.875E3,3.308E3,1.0388E4,1.602E3,8.35E2,3.016E3,2.1424E4,1.0887E4,2.3285E4,5.829E3,1.046E3,2.698E3,6.1E2,8.014E3,2.374E3,1.337E3,2.65E2,2.04E2,6.31E2,2.351E3,6.65E2,8.786E3,1.2638E4],"tree_param":{"num_deleted":"0","num_feature":"37","num_nodes":"31","size_leaf_vector":"0"}},{"base_weights":[7.4025583E0,6.5217495E0,8.59692E0,5.339222E0,7.1755576E0,8.268486E0,1.0620373E1,7.1177826E0,4.846745E0,7.707464E0,6.286849E0,6.764302E0,8.618158E0,1.1746985E1,9.096286E0,6.522197E0,1.0662721E1,3.177978E0,5.337536E0,6.5048704E0,8.233596E0,5.7933445E0,7.957854E0,5.3848643E0,7.9024587E0,7.312898E0,9.011218E0,1.1164197E1,1.49987E1,1.0594756E1,4.6977186E0],"categories":[],"categories_nodes":[],"categories_segments":[],"categories_sizes":[],"default_left":[1,1,1,1,1,1,0,1,0,1,1,1,1,1,1,0,0,0,0,0,0,0,0,0,0,0,0,0,0,0,0],"id":40,"left_children":[1,3,5,7,9,11,13,15,17,19,21,23,25,27,29,-1,-1,-1,-1,-1,-1,-1,-1,-1,-1,-1,-1,-1,-1,-1,-1],"loss_changes":[8.581E4,3.6285125E4,2.29335E4,1.4620156E4,1.4251375E4,1.5619875E4,8.193375E3,7.586078E3,1.07170625E4,1.19175E4,9.2988125E3,8.7919375E3,1.23405E4,5.0932812E3,1.3521359E4,0E0,0E0,0E0,0E0,0E0,0E0,0E0,0E0,0E0,0E0,0E0,0E0,0E0,0E0,0E0,0E0],"parents":[2147483647,0,0,1,1,2,2,3,3,4,4,5,5,6,6,7,7,8,8,9,9,10,10,11,11,12,12,13,13,14,14],"right_children":[2,4,6,8,10,12,14,16,18,20,22,24,26,28,30,-1,-1,-1,-1,-1,-1,-1,-1,-1,-1,-1,-1,-1,-1,-1,-1],"split_conditions":[5.4878995E-2,8.39054E-2,1.7060465E0,-1.1255853E0,-1.3149893E-1,-9.224676E-1,4.787057E-1,7.001566E-1,-5.4220676E-1,-6.81141E-1,1.9543809E-1,-3.1689048E-1,-1.8548084E0,2.9621265E0,5.1354116E-1,3.2610986E-1,5.3313607E-1,1.588989E-1,2.668768E-1,3.2524353E-1,4.116798E-1,2.8966722E-1,3.9789268E-1,2.692432E-1,3.9512295E-1,3.656449E-1,4.505609E-1,5.5820984E-1,7.4993503E-1,5.2973783E-1,2.3488593E-1],"split_indices":[7,20,7,0,10,1,0,14,0,8,14,23,0,7,1,0,0,0,0,0,0,0,0,0,0,0,0,0,0,0,0],"split_type":[0,0,0,0,0,0,0,0,0,0,0,0,0,0,0,0,0,0,0,0,0,0,0,0,0,0,0,0,0,0,0],"sum_hessian":[8.162E4,4.698E4,3.464E4,1.673E4,3.025E4,2.9807E4,4.833E3,3.625E3,1.3105E4,1.8919E4,1.1331E4,5.626E3,2.4181E4,2.775E3,2.058E3,3.106E3,5.19E2,2.98E3,1.0125E4,5.762E3,1.3157E4,8.751E3,2.58E3,2.546E3,3.08E3,5.601E3,1.858E4,2.357E3,4.18E2,1.534E3,5.24E2],"tree_param":{"num_deleted":"0","num_feature":"37","num_nodes":"31","size_leaf_vector":"0"}},{"base_weights":[7.032507E0,6.1234536E0,8.1043825E0,4.906266E0,6.691206E0,7.449633E0,9.047007E0,6.544023E0,4.2211556E0,6.386652E0,8.326109E0,7.568566E0,3.099391E0,8.76044E0,1.1808477E1,5.9902477E0,9.705021E0,-1.5769002E-1,4.706022E0,6.4145975E0,-6.371127E0,1.03883295E1,7.7684464E0,6.386679E0,7.934652E0,4.9710617E0,2.7082103E-1,8.617369E0,1.2369685E1,1.0972057E1,1.484697E1],"categories":[],"categories_nodes":[],"categories_segments":[],"categories_sizes":[],"default_left":[1,1,1,1,1,1,1,1,0,1,0,1,1,1,1,0,0,0,0,0,0,0,0,0,0,0,0,0,0,0,0],"id":41,"left_children":[1,3,5,7,9,11,13,15,17,19,21,23,25,27,29,-1,-1,-1,-1,-1,-1,-1,-1,-1,-1,-1,-1,-1,-1,-1,-1],"loss_changes":[7.948125E4,3.049075E4,2.3048E4,1.5740469E4,1.49425E4,1.1414375E4,1.2041125E4,7.1940938E3,2.1043312E4,9.093625E3,5.3543125E3,9.259625E3,3.1222036E3,7.07525E3,3.4967969E3,0E0,0E0,0E0,0E0,0E0,0E0,0E0,0E0,0E0,0E0,0E0,0E0,0E0,0E0,0E0,0E0],"parents":[2147483647,0,0,1,1,2,2,3,3,4,4,5,5,6,6,7,7,8,8,9,9,10,10,11,11,12,12,13,13,14,14],"right_children":[2,4,6,8,10,12,14,16,18,20,22,24,26,28,30,-1,-1,-1,-1,-1,-1,-1,-1,-1,-1,-1,-1,-1,-1,-1,-1],"split_conditions":[1.5179807E-1,-7.598568E-1,9.5608614E-2,-6.8805134E-1,8.678193E-1,8.906808E-1,2.2333415E0,6.9219553E-1,-5.4220676E-1,8.164018E0,-6.8805134E-1,-6.2329906E-1,1.2079289E0,2.6161757E0,3.390671E0,2.995124E-1,4.8525104E-1,-7.8845015E-3,2.3530109E-1,3.2072988E-1,-3.1855637E-1,5.194165E-1,3.8842234E-1,3.1933397E-1,3.967326E-1,2.4855308E-1,1.3541052E-2,4.3086845E-1,6.1848426E-1,5.486029E-1,7.423485E-1],"split_indices":[20,7,14,0,4,27,7,14,0,16,0,1,0,2,7,0,0,0,0,0,0,0,0,0,0,0,0,0,0,0,0],"split_type":[0,0,0,0,0,0,0,0,0,0,0,0,0,0,0,0,0,0,0,0,0,0,0,0,0,0,0,0,0,0,0],"sum_hessian":[8.162E4,4.4168E4,3.7452E4,1.4052E4,3.0116E4,2.2106E4,1.5346E4,4.142E3,9.91E3,2.5391E4,4.725E3,2.1517E4,5.89E2,1.3907E4,1.439E3,3.527E3,6.15E2,9.88E2,8.922E3,2.5336E4,5.5E1,1.002E3,3.723E3,5.093E3,1.6424E4,3.54E2,2.35E2,1.338E4,5.27E2,1.132E3,3.07E2],"tree_param":{"num_deleted":"0","num_feature":"37","num_nodes":"31","size_leaf_vector":"0"}},{"base_weights":[6.6809464E0,5.448882E0,7.4197736E0,2.7321787E0,5.6817636E0,8.296014E0,6.7186565E0,3.6563475E0,6.83842E-1,4.949866E0,6.301387E0,7.993749E0,1.0051321E1,7.088441E0,4.9555135E0,2.8249803E0,5.945144E0,-1.1111636E0,1.991475E0,6.552116E0,4.4680967E0,5.9851627E0,8.798519E0,7.6155233E0,9.062821E0,8.857909E0,1.14472065E1,7.3614483E0,5.6509256E0,-1.3333498E0,5.167273E0],"categories":[],"categories_nodes":[],"categories_segments":[],"categories_sizes":[],"default_left":[1,1,1,1,1,1,1,1,1,1,1,1,1,1,1,0,0,0,0,0,0,0,0,0,0,0,0,0,0,0,0],"id":42,"left_children":[1,3,5,7,9,11,13,15,17,19,21,23,25,27,29,-1,-1,-1,-1,-1,-1,-1,-1,-1,-1,-1,-1,-1,-1,-1,-1],"loss_changes":[7.425775E4,1.9344812E4,3.1289E4,4.574793E3,1.275025E4,1.194975E4,1.844725E4,3.1533203E3,1.7696609E3,9.948531E3,1.1996625E4,7.75425E3,5.4409375E3,9.154E3,6.5563125E3,0E0,0E0,0E0,0E0,0E0,0E0,0E0,0E0,0E0,0E0,0E0,0E0,0E0,0E0,0E0,0E0],"parents":[2147483647,0,0,1,1,2,2,3,3,4,4,5,5,6,6,7,7,8,8,9,9,10,10,11,11,12,12,13,13,14,14],"right_children":[2,4,6,8,10,12,14,16,18,20,22,24,26,28,30,-1,-1,-1,-1,-1,-1,-1,-1,-1,-1,-1,-1,-1,-1,-1,-1],"split_conditions":[-4.4392252E-1,-1.2835596E0,-2.628227E-1,1.0620842E0,-2.0646598E-2,3.114308E-1,1.8209095E-1,6.2455034E-1,-5.499536E-1,-7.0565426E-1,1.351213E0,7.95438E-1,9.9221075E-1,8.849672E-1,-1.0443113E0,1.4124902E-1,2.972572E-1,-5.5558182E-2,9.9573754E-2,3.276058E-1,2.2340484E-1,2.9925814E-1,4.3992597E-1,3.8077617E-1,4.5314106E-1,4.4289547E-1,5.7236034E-1,3.6807242E-1,2.8254628E-1,-6.666749E-2,2.5836366E-1],"split_indices":[8,30,24,0,25,20,10,0,36,17,1,14,1,24,28,0,0,0,0,0,0,0,0,0,0,0,0,0,0,0,0],"split_type":[0,0,0,0,0,0,0,0,0,0,0,0,0,0,0,0,0,0,0,0,0,0,0,0,0,0,0,0,0,0,0],"sum_hessian":[8.162E4,3.06E4,5.102E4,2.417E3,2.8183E4,2.2673E4,2.8347E4,1.665E3,7.52E2,1.2925E4,1.5258E4,1.9347E4,3.326E3,2.343E4,4.917E3,1.223E3,4.42E2,3.17E2,4.35E2,2.985E3,9.94E3,1.3546E4,1.712E3,1.4297E4,5.05E3,1.797E3,1.529E3,1.9687E4,3.743E3,1.6E2,4.757E3],"tree_param":{"num_deleted":"0","num_feature":"37","num_nodes":"31","size_leaf_vector":"0"}},{"base_weights":[6.346954E0,6.9575086E0,4.9770956E0,6.307059E0,7.874997E0,2.3019469E0,5.241566E0,5.50001E0,6.9430084E0,7.533253E0,9.655564E0,1.1338968E0,4.5564938E0,3.5279064E0,5.479115E0,5.142432E0,8.482185E0,6.341132E0,7.845575E0,8.945588E0,7.230126E0,9.182497E0,1.1631202E1,2.0800934E0,-3.2420788E0,9.7392136E-1,5.666048E0,8.5403454E-1,4.0634637E0,1.177087E0,5.5871596E0],"categories":[],"categories_nodes":[],"categories_segments":[],"categories_sizes":[],"default_left":[1,1,1,1,1,1,1,1,1,0,1,1,1,1,1,0,0,0,0,0,0,0,0,0,0,0,0,0,0,0,0],"id":43,"left_children":[1,3,5,7,9,11,13,15,17,19,21,23,25,27,29,-1,-1,-1,-1,-1,-1,-1,-1,-1,-1,-1,-1,-1,-1,-1,-1],"loss_changes":[6.8231E4,3.364125E4,1.7793562E4,1.6919375E4,1.4175875E4,5.962171E3,9.3035625E3,1.5488969E4,9.9864375E3,8.347875E3,3.4139062E3,6.1927007E3,3.0672002E3,3.9932734E3,9.3416875E3,0E0,0E0,0E0,0E0,0E0,0E0,0E0,0E0,0E0,0E0,0E0,0E0,0E0,0E0,0E0,0E0],"parents":[2147483647,0,0,1,1,2,2,3,3,4,4,5,5,6,6,7,7,8,8,9,9,10,10,11,11,12,12,13,13,14,14],"right_children":[2,4,6,8,10,12,14,16,18,20,22,24,26,28,30,-1,-1,-1,-1,-1,-1,-1,-1,-1,-1,-1,-1,-1,-1,-1,-1],"split_conditions":[6.012557E-1,9.36101E-2,-3.7500113E-2,-7.207461E-2,1.5656946E0,5.3438807E-1,-1.2814698E0,1.4708803E0,1.0028744E-1,-1.1255853E0,2.6659331E0,9.166523E-1,-8.028002E-1,-2.892446E-1,-2.5481641E0,2.5712162E-1,4.2410928E-1,3.1705663E-1,3.9227876E-1,4.4727942E-1,3.615063E-1,4.5912486E-1,5.815601E-1,1.0400467E-1,-1.6210394E-1,4.8696067E-2,2.833024E-1,4.270173E-2,2.0317319E-1,5.885435E-2,2.79358E-1],"split_indices":[24,14,20,7,28,33,1,1,1,0,2,3,1,23,33,0,0,0,0,0,0,0,0,0,0,0,0,0,0,0,0],"split_type":[0,0,0,0,0,0,0,0,0,0,0,0,0,0,0,0,0,0,0,0,0,0,0,0,0,0,0,0,0,0,0],"sum_hessian":[8.162E4,5.6454E4,2.5166E4,3.3039E4,2.3415E4,2.265E3,2.2901E4,1.4565E4,1.8474E4,1.9649E4,3.766E3,1.493E3,7.72E2,2.79E3,2.0111E4,1.3008E4,1.557E3,1.1088E4,7.386E3,3.467E3,1.6182E4,3.043E3,7.23E2,1.228E3,2.65E2,1.83E2,5.89E2,4.66E2,2.324E3,4.93E2,1.9618E4],"tree_param":{"num_deleted":"0","num_feature":"37","num_nodes":"31","size_leaf_vector":"0"}},{"base_weights":[6.0296564E0,4.9313493E0,6.739555E0,4.524424E0,6.5402923E0,6.197853E0,7.6913238E0,3.1573687E0,4.9363203E0,5.634381E0,7.6787024E0,6.428701E0,4.567684E0,7.47731E0,1.0887477E1,2.34307E0,4.7777953E0,4.6934285E0,6.4457536E0,5.735607E0,-6.619582E0,1.0380753E1,7.1368876E0,5.2412686E0,6.7024097E0,4.9500146E0,4.846348E-1,7.147456E0,9.109827E0,9.9709994E-1,1.1850479E1],"categories":[],"categories_nodes":[],"categories_segments":[],"categories_sizes":[],"default_left":[1,1,1,1,1,1,1,1,1,1,0,1,1,1,1,0,0,0,0,0,0,0,0,0,0,0,0,0,0,0,0],"id":44,"left_children":[1,3,5,7,9,11,13,15,17,19,21,23,25,27,29,-1,-1,-1,-1,-1,-1,-1,-1,-1,-1,-1,-1,-1,-1,-1,-1],"loss_changes":[6.36055E4,2.0952938E4,2.55115E4,1.4389219E4,6.6261562E3,1.186175E4,1.221525E4,7.8082266E3,7.1765938E3,4.5096797E3,4.117375E3,8.959875E3,6.1216953E3,9.0095625E3,1.0712719E4,0E0,0E0,0E0,0E0,0E0,0E0,0E0,0E0,0E0,0E0,0E0,0E0,0E0,0E0,0E0,0E0],"parents":[2147483647,0,0,1,1,2,2,3,3,4,4,5,5,6,6,7,7,8,8,9,9,10,10,11,11,12,12,13,13,14,14],"right_children":[2,4,6,8,10,12,14,16,18,20,22,24,26,28,30,-1,-1,-1,-1,-1,-1,-1,-1,-1,-1,-1,-1,-1,-1,-1,-1],"split_conditions":[1.1615685E-1,1.858665E-1,4.8157877E-1,6.7237457E-3,5.082226E-1,1.1153696E0,1.351213E0,4.667401E-1,4.5344037E-1,8.14613E0,-8.3389604E-1,-8.117327E-1,1.7371604E0,1.82095E0,-1.9277308E0,1.171535E-1,2.3888977E-1,2.3467143E-1,3.2228768E-1,2.8678036E-1,-3.309791E-1,5.1903766E-1,3.568444E-1,2.6206344E-1,3.351205E-1,2.4750073E-1,2.423174E-2,3.5737282E-1,4.5549136E-1,4.9854998E-2,5.92524E-1],"split_indices":[20,18,7,20,4,3,1,33,14,16,0,8,16,18,0,0,0,0,0,0,0,0,0,0,0,0,0,0,0,0,0],"split_type":[0,0,0,0,0,0,0,0,0,0,0,0,0,0,0,0,0,0,0,0,0,0,0,0,0,0,0,0,0,0,0],"sum_hessian":[8.162E4,3.2047E4,4.9573E4,2.5581E4,6.466E3,3.1597E4,1.7976E4,5.925E3,1.9656E4,3.604E3,2.862E3,2.7675E4,3.922E3,1.6851E4,1.125E3,3.945E3,1.98E3,1.6935E4,2.721E3,3.575E3,2.9E1,4.75E2,2.387E3,5.188E3,2.2487E4,3.586E3,3.36E2,1.4023E4,2.828E3,1E2,1.025E3],"tree_param":{"num_deleted":"0","num_feature":"37","num_nodes":"31","size_leaf_vector":"0"}},{"base_weights":[5.728223E0,4.54111E0,6.3364773E0,4.042258E0,5.7521777E0,5.937209E0,7.5514894E0,2.6268137E0,4.51534E0,1.706581E0,6.199844E0,5.324116E0,6.5382347E0,6.17597E0,8.007366E0,5.194817E0,1.9793974E0,3.4668171E0,5.0507364E0,2.3179063E-1,9.089808E0,5.863206E0,9.231717E0,3.8182921E0,5.5218487E0,7.273719E0,5.9565053E0,5.6997647E0,8.27425E0,8.549253E0,6.1537833E0],"categories":[],"categories_nodes":[],"categories_segments":[],"categories_sizes":[],"default_left":[1,1,1,1,1,1,1,1,1,1,1,1,1,1,0,0,0,0,0,0,0,0,0,0,0,0,0,0,0,0,0],"id":45,"left_children":[1,3,5,7,9,11,13,15,17,19,21,23,25,27,29,-1,-1,-1,-1,-1,-1,-1,-1,-1,-1,-1,-1,-1,-1,-1,-1],"loss_changes":[5.8907E4,1.6684938E4,2.613475E4,1.3106719E4,1.4597594E4,1.4934125E4,8.318125E3,8.152926E3,8.224594E3,8.763307E3,7.35775E3,5.968125E3,8.7315E3,3.2762266E3,1.00108125E4,0E0,0E0,0E0,0E0,0E0,0E0,0E0,0E0,0E0,0E0,0E0,0E0,0E0,0E0,0E0,0E0],"parents":[2147483647,0,0,1,1,2,2,3,3,4,4,5,5,6,6,7,7,8,8,9,9,10,10,11,11,12,12,13,13,14,14],"right_children":[2,4,6,8,10,12,14,16,18,20,22,24,26,28,30,-1,-1,-1,-1,-1,-1,-1,-1,-1,-1,-1,-1,-1,-1,-1,-1],"split_conditions":[-4.9552017E-1,7.528759E-1,8.282567E-1,-1.2115958E0,-2.965471E-1,1.4897197E-1,-6.2329906E-1,-6.8805134E-1,3.294139E-1,5.345932E-1,2.4930912E-1,1.1888896E-2,-7.200215E-3,1.6743243E0,4.6035285E0,2.5974086E-1,9.896987E-2,1.7334086E-1,2.5253683E-1,1.1589532E-2,4.5449042E-1,2.931603E-1,4.6158585E-1,1.9091462E-1,2.7609244E-1,3.6368594E-1,2.9782528E-1,2.8498825E-1,4.137125E-1,4.2746267E-1,3.0768916E-1],"split_indices":[7,1,8,7,25,20,1,0,23,14,20,20,36,7,0,0,0,0,0,0,0,0,0,0,0,0,0,0,0,0,0],"split_type":[0,0,0,0,0,0,0,0,0,0,0,0,0,0,0,0,0,0,0,0,0,0,0,0,0,0,0,0,0,0,0],"sum_hessian":[8.162E4,2.7655E4,5.3965E4,1.959E4,8.065E3,4.0622E4,1.3343E4,4.909E3,1.4681E4,8.04E2,7.261E3,2.0114E4,2.0508E4,3.325E3,1.0018E4,9.87E2,3.922E3,4.965E3,9.716E3,6.71E2,1.33E2,6.538E3,7.23E2,2.337E3,1.7777E4,9.052E3,1.1456E4,2.713E3,6.12E2,7.749E3,2.269E3],"tree_param":{"num_deleted":"0","num_feature":"37","num_nodes":"31","size_leaf_vector":"0"}},{"base_weights":[5.441868E0,4.3337502E0,6.042899E0,1.73665E0,4.5264053E0,6.6890903E0,5.35921E0,-1.9463178E0,2.2711978E0,3.760804E0,5.040386E0,6.337636E0,7.977111E0,5.8581266E0,4.1433935E0,-2.5269153E0,4.91496E0,3.0427284E0,3.9952257E-1,5.2774143E0,3.2549887E0,4.741972E0,7.4088483E0,5.234185E0,6.757534E0,7.6491466E0,1.0724107E1,5.2544575E0,6.417091E0,-1.9570746E0,4.270095E0],"categories":[],"categories_nodes":[],"categories_segments":[],"categories_sizes":[],"default_left":[1,1,1,1,1,1,1,1,1,1,1,1,1,1,1,0,0,0,0,0,0,0,0,0,0,0,0,0,0,0,0],"id":46,"left_children":[1,3,5,7,9,11,13,15,17,19,21,23,25,27,29,-1,-1,-1,-1,-1,-1,-1,-1,-1,-1,-1,-1,-1,-1,-1,-1],"loss_changes":[5.43345E4,1.4355E4,2.3342125E4,3.9103643E3,1.0496625E4,1.226225E4,1.5575375E4,1.0162971E3,2.501331E3,8.220203E3,1.1263531E4,9.868E3,5.167625E3,6.1183125E3,5.794578E3,0E0,0E0,0E0,0E0,0E0,0E0,0E0,0E0,0E0,0E0,0E0,0E0,0E0,0E0,0E0,0E0],"parents":[2147483647,0,0,1,1,2,2,3,3,4,4,5,5,6,6,7,7,8,8,9,9,10,10,11,11,12,12,13,13,14,14],"right_children":[2,4,6,8,10,12,14,16,18,20,22,24,26,28,30,-1,-1,-1,-1,-1,-1,-1,-1,-1,-1,-1,-1,-1,-1,-1,-1],"split_conditions":[-4.937265E-1,-1.3219746E0,-7.3582105E-2,-1.8966887E0,-7.398523E-2,9.40055E-1,-1.0360518E-1,1.1753557E0,1.0620842E0,-6.595252E-1,1.351213E0,-6.2329906E-1,1.351213E0,-2.5051746E-1,-2.2844627E0,-1.2634577E-1,2.45748E-1,1.5213643E-1,1.997613E-2,2.6387072E-1,1.6274944E-1,2.370986E-1,3.7044242E-1,2.6170927E-1,3.378767E-1,3.8245735E-1,5.3620535E-1,2.6272288E-1,3.2085454E-1,-9.7853735E-2,2.1350475E-1],"split_indices":[8,30,24,2,27,14,10,23,0,17,1,1,1,0,33,0,0,0,0,0,0,0,0,0,0,0,0,0,0,0,0],"split_type":[0,0,0,0,0,0,0,0,0,0,0,0,0,0,0,0,0,0,0,0,0,0,0,0,0,0,0,0,0,0,0],"sum_hessian":[8.162E4,2.8705E4,5.2915E4,1.983E3,2.6722E4,2.7199E4,2.5716E4,2.51E2,1.732E3,1.0737E4,1.5985E4,2.1373E4,5.826E3,1.8231E4,7.485E3,2.32E2,1.9E1,1.226E3,5.06E2,2.683E3,8.054E3,1.4199E4,1.786E3,5.895E3,1.5478E4,5.208E3,6.18E2,8.77E3,9.461E3,1.52E2,7.333E3],"tree_param":{"num_deleted":"0","num_feature":"37","num_nodes":"31","size_leaf_vector":"0"}},{"base_weights":[5.169818E0,4.581168E0,6.214959E0,3.5842366E0,5.06829E0,-8.376323E-1,6.2774153E0,4.8765774E0,3.0219178E0,4.678375E0,5.867934E0,-2.8985991E0,3.2001395E0,5.9237366E0,7.460313E0,4.2966228E0,7.447563E0,-1.0942256E0,3.4486134E0,5.457201E0,4.145909E0,4.4098496E0,6.265766E0,-4.9893346E0,1.6396801E0,2.6594863E0,1.0145818E1,4.558461E0,6.24632E0,7.218518E0,1.1126551E1],"categories":[],"categories_nodes":[],"categories_segments":[],"categories_sizes":[],"default_left":[1,1,1,1,1,1,1,1,0,1,1,1,1,1,1,0,0,0,0,0,0,0,0,0,0,0,0,0,0,0,0],"id":47,"left_children":[1,3,5,7,9,11,13,15,17,19,21,23,25,27,29,-1,-1,-1,-1,-1,-1,-1,-1,-1,-1,-1,-1,-1,-1,-1,-1],"loss_changes":[5.01865E4,2.5339875E4,1.29575E4,1.2443203E4,1.09086875E4,2.1645996E3,1.2149875E4,7.7155234E3,2.0988531E4,9.757219E3,6.639125E3,1.6401755E3,3.034751E2,9.85575E3,5.8635312E3,0E0,0E0,0E0,0E0,0E0,0E0,0E0,0E0,0E0,0E0,0E0,0E0,0E0,0E0,0E0,0E0],"parents":[2147483647,0,0,1,1,2,2,3,3,4,4,5,5,6,6,7,7,8,8,9,9,10,10,11,11,12,12,13,13,14,14],"right_children":[2,4,6,8,10,12,14,16,18,20,22,24,26,28,30,-1,-1,-1,-1,-1,-1,-1,-1,-1,-1,-1,-1,-1,-1,-1,-1],"split_conditions":[1.7475449E-1,-6.8723154E-1,-2.3093343E0,-6.8805134E-1,1.5576756E-1,-5.9428974E-3,6.795292E-1,5.354112E-1,-5.4220676E-1,-4.7355095E-1,-1.042135E0,-3.895795E-2,2.8632277E-1,-6.2329906E-1,2.9503512E0,2.1483114E-1,3.7237817E-1,-5.4711282E-2,1.7243068E-1,2.7286005E-1,2.0729545E-1,2.2049248E-1,3.132883E-1,-2.4946673E-1,8.1984006E-2,1.3297431E-1,5.072909E-1,2.2792307E-1,3.12316E-1,3.6092588E-1,5.563275E-1],"split_indices":[20,7,26,0,18,35,14,14,0,17,1,34,33,1,7,0,0,0,0,0,0,0,0,0,0,0,0,0,0,0,0],"split_type":[0,0,0,0,0,0,0,0,0,0,0,0,0,0,0,0,0,0,0,0,0,0,0,0,0,0,0,0,0,0,0],"sum_hessian":[8.162E4,5.2216E4,2.9404E4,1.7142E4,3.5074E4,2.58E2,2.9146E4,5.195E3,1.1947E4,2.3582E4,1.1492E4,1.71E2,8.7E1,2.2442E4,6.704E3,4.241E3,9.54E2,1.122E3,1.0825E4,9.572E3,1.401E4,2.466E3,9.026E3,1.17E2,5.4E1,8.2E1,5E0,4.292E3,1.815E4,6.292E3,4.12E2],"tree_param":{"num_deleted":"0","num_feature":"37","num_nodes":"31","size_leaf_vector":"0"}},{"base_weights":[4.911371E0,5.4004326E0,3.740636E0,4.8279386E0,6.182305E0,8.472662E-1,3.9214501E0,4.3518076E0,5.557276E0,5.902025E0,7.795211E0,-2.1421576E-1,3.0047834E0,1.2400482E0,4.0525928E0,4.1009254E0,6.754815E0,4.1335588E0,5.881351E0,-2.290118E0,5.9422393E0,7.444783E0,1.1121455E1,-1.3888042E0,1.9865668E0,4.408886E0,-8.1758134E-2,